<?xml version="1.0"?>
<opencv_storage>
<cascade>
  <stageType>BOOST</stageType>
  <featureType>LBP</featureType>
  <height>11</height>
  <width>47</width>
  <stageParams>
    <boostType>GAB</boostType>
    <minHitRate>9.9500000476837158e-001</minHitRate>
    <maxFalseAlarm>4.4999998807907104e-001</maxFalseAlarm>
    <weightTrimRate>9.4999999999999996e-001</weightTrimRate>
    <maxDepth>1</maxDepth>
    <maxWeakCount>100</maxWeakCount></stageParams>
  <featureParams>
    <maxCatCount>256</maxCatCount>
    <featSize>1</featSize></featureParams>
  <stageNum>13</stageNum>
  <stages>
    <!-- stage 0 -->
    <_>
      <maxWeakCount>4</maxWeakCount>
      <stageThreshold>-1.8935362100601196e+000</stageThreshold>
      <weakClassifiers>
        <_>
          <internalNodes>
            0 -1 26 268440792 -552529896 -788172291 -2287343 -1132294977
            -1146453892 -1954501889 -1146484562</internalNodes>
          <leafValues>
            -9.2051225900650024e-001 5.4235142469406128e-001</leafValues></_>
        <_>
          <internalNodes>
            0 -1 28 293642488 -70205256 419469817 -15138659 -670516996
            -1685583744 -1651856981 -1962278772</internalNodes>
          <leafValues>
            -8.2696640491485596e-001 5.9066975116729736e-001</leafValues></_>
        <_>
          <internalNodes>
            0 -1 46 -1069485872 -573496268 -1828449825 1500594573
            -1157461830 -83355472 1409559023 998703114</internalNodes>
          <leafValues>
            -7.2755599021911621e-001 5.5135953426361084e-001</leafValues></_>
        <_>
          <internalNodes>
            0 -1 34 470847632 -40824568 1061277 426971421 -1693972306
            -1726479871 193472927 530252735</internalNodes>
          <leafValues>
            -6.9154387712478638e-001 5.8149844408035278e-001</leafValues></_></weakClassifiers></_>
    <!-- stage 1 -->
    <_>
      <maxWeakCount>3</maxWeakCount>
      <stageThreshold>-1.1088672876358032e+000</stageThreshold>
      <weakClassifiers>
        <_>
          <internalNodes>
            0 -1 1 -1063194888 -11169640 1494799871 -14990957 -880105281
            -74743671 -368514625 -1412480821</internalNodes>
          <leafValues>
            -8.5239082574844360e-001 6.0645657777786255e-001</leafValues></_>
        <_>
          <internalNodes>
            0 -1 13 -1584887560 -15690968 -1744809761 -1085210360
            -2012694341 -1162280792 -1686050641 -1355939698</internalNodes>
          <leafValues>
            -7.9466938972473145e-001 5.6373202800750732e-001</leafValues></_>
        <_>
          <internalNodes>
            0 -1 35 268457168 -536932144 -385477153 2144305289
            -1979149638 -544241495 -1157216023 -1199044472</internalNodes>
          <leafValues>
            -8.2020848989486694e-001 5.4100060462951660e-001</leafValues></_></weakClassifiers></_>
    <!-- stage 2 -->
    <_>
      <maxWeakCount>5</maxWeakCount>
      <stageThreshold>-1.2600144147872925e+000</stageThreshold>
      <weakClassifiers>
        <_>
          <internalNodes>
            0 -1 48 -805252912 -11333167 1895947263 -44088931
            -1744131333 -5668165 -1412715521 -1075102997</internalNodes>
          <leafValues>
            -8.1540340185165405e-001 5.7439732551574707e-001</leafValues></_>
        <_>
          <internalNodes>
            0 -1 47 -34818312 -1813507264 1409288272 932714624
            1269049832 956301313 -1761074754 -25633</internalNodes>
          <leafValues>
            -7.6884597539901733e-001 5.0446665287017822e-001</leafValues></_>
        <_>
          <internalNodes>
            0 -1 49 1040486808 -581166640 -1157521927 -549912451
            859880136 -5764968 965359835 -1155006408</internalNodes>
          <leafValues>
            -7.3318958282470703e-001 5.6233328580856323e-001</leafValues></_>
        <_>
          <internalNodes>
            0 -1 59 -512761726 1376485514 32776 1359069250 1912840832
            1074790403 1610865582 1942481771</internalNodes>
          <leafValues>
            -7.1896225214004517e-001 5.2978509664535522e-001</leafValues></_>
        <_>
          <internalNodes>
            0 -1 32 -264191792 1607930357 -1728032645 1398609321
            -263017814 -1143469946 597920703 176816138</internalNodes>
          <leafValues>
            -7.1667069196701050e-001 5.2763944864273071e-001</leafValues></_></weakClassifiers></_>
    <!-- stage 3 -->
    <_>
      <maxWeakCount>5</maxWeakCount>
      <stageThreshold>-1.1257524490356445e+000</stageThreshold>
      <weakClassifiers>
        <_>
          <internalNodes>
            0 -1 76 -2302 -69211709 -263984128 -211815457 -748686586
            324248531 -191897344 -201326593</internalNodes>
          <leafValues>
            -8.5450500249862671e-001 3.2797029614448547e-001</leafValues></_>
        <_>
          <internalNodes>
            0 -1 33 285217240 -172279331 -38707973 -451203 -1089865729
            -1082508711 -1112933377 -1076362792</internalNodes>
          <leafValues>
            -7.7341616153717041e-001 4.0872254967689514e-001</leafValues></_>
        <_>
          <internalNodes>
            0 -1 27 -336597330 2934186 -1035729912 -2100371318
            -623132389 571623687 1919680078 -201326705</internalNodes>
          <leafValues>
            -6.4415490627288818e-001 5.1394116878509521e-001</leafValues></_>
        <_>
          <internalNodes>
            0 -1 62 2107645432 -572753443 493002109 1608335357
            -1357014275 -1147626819 -16188483 -1680139120</internalNodes>
          <leafValues>
            -6.3102316856384277e-001 4.9929282069206238e-001</leafValues></_>
        <_>
          <internalNodes>
            0 -1 68 -33557510 -1074217492 -1244087636 -68304904
            1998076876 267665405 784113656 -537133057</internalNodes>
          <leafValues>
            -4.8466914892196655e-001 6.4703083038330078e-001</leafValues></_></weakClassifiers></_>
    <!-- stage 4 -->
    <_>
      <maxWeakCount>5</maxWeakCount>
      <stageThreshold>-1.2300182580947876e+000</stageThreshold>
      <weakClassifiers>
        <_>
          <internalNodes>
            0 -1 75 -241 -974127361 -175646462 -150994985 -186
            1673503611 -67110110 -17</internalNodes>
          <leafValues>
            -8.2550042867660522e-001 3.1881189346313477e-001</leafValues></_>
        <_>
          <internalNodes>
            0 -1 6 -257 -1057034498 -274 -16842753 -168299049 1903689727
            -671350785 -1</internalNodes>
          <leafValues>
            -5.8770436048507690e-001 6.4975261688232422e-001</leafValues></_>
        <_>
          <internalNodes>
            0 -1 71 -355481856 -527448587 -863067904 -2110864730
            -145800445 33996875 -698906810 1128264639</internalNodes>
          <leafValues>
            -6.8413960933685303e-001 3.9564278721809387e-001</leafValues></_>
        <_>
          <internalNodes>
            0 -1 25 -1597495600 -33593409 -1240531489 -539000833
            -1093681153 -6669 -74579969 -1108737890</internalNodes>
          <leafValues>
            -6.3506591320037842e-001 4.4079115986824036e-001</leafValues></_>
        <_>
          <internalNodes>
            0 -1 50 -1599609342 -2132018137 1365713670 -1060376161
            -483922105 1925685479 -1013460986 1112531747</internalNodes>
          <leafValues>
            -6.5324741601943970e-001 4.5141154527664185e-001</leafValues></_></weakClassifiers></_>
    <!-- stage 5 -->
    <_>
      <maxWeakCount>5</maxWeakCount>
      <stageThreshold>-1.3176780939102173e+000</stageThreshold>
      <weakClassifiers>
        <_>
          <internalNodes>
            0 -1 0 -286326785 -2049 -2621441 -513 -273956865 -1025 -8193
            -269746177</internalNodes>
          <leafValues>
            -7.6398253440856934e-001 5.0608044862747192e-001</leafValues></_>
        <_>
          <internalNodes>
            0 -1 37 934821848 -131079 502036473 -4220451 -1266945
            -1074963972 -1525761 -1076358996</internalNodes>
          <leafValues>
            -6.9822770357131958e-001 3.7969172000885010e-001</leafValues></_>
        <_>
          <internalNodes>
            0 -1 54 268441688 -35694256 -76062883 2147177951 -1078067201
            -4195653 -1078104178 -1123742800</internalNodes>
          <leafValues>
            -6.8945872783660889e-001 3.6718055605888367e-001</leafValues></_>
        <_>
          <internalNodes>
            0 -1 5 -271585297 -922746881 -26351002 -353440017 -135268482
            1434451765 -1090526347 -167772161</internalNodes>
          <leafValues>
            -5.7736080884933472e-001 4.4510531425476074e-001</leafValues></_>
        <_>
          <internalNodes>
            0 -1 61 -276845604 1018215414 -1220276792 2146286558
            447484828 351813501 2069445373 2147450815</internalNodes>
          <leafValues>
            -6.5623253583908081e-001 3.8888555765151978e-001</leafValues></_></weakClassifiers></_>
    <!-- stage 6 -->
    <_>
      <maxWeakCount>7</maxWeakCount>
      <stageThreshold>-1.5459197759628296e+000</stageThreshold>
      <weakClassifiers>
        <_>
          <internalNodes>
            0 -1 11 -16842753 -1073815553 -1101096449 -1074616194
            -67239937 -5121 -1025 -65537</internalNodes>
          <leafValues>
            -7.7351409196853638e-001 3.0243161320686340e-001</leafValues></_>
        <_>
          <internalNodes>
            0 -1 7 -285283345 -285217281 -295178578 -286331702
            2004578111 1467448575 -70290123 -134217729</internalNodes>
          <leafValues>
            -6.5089243650436401e-001 3.7059199810028076e-001</leafValues></_>
        <_>
          <internalNodes>
            0 -1 15 243797758 -1850715 1858002039 2145318493 -1409548546
            -1079313233 -1141070337 -1364292694</internalNodes>
          <leafValues>
            -6.4992851018905640e-001 3.5241368412971497e-001</leafValues></_>
        <_>
          <internalNodes>
            0 -1 3 -286265557 83754949 -22033425 -1930445473 1535115107
            1823849078 -550568458 1988099959</internalNodes>
          <leafValues>
            -6.4445614814758301e-001 3.4369519352912903e-001</leafValues></_>
        <_>
          <internalNodes>
            0 -1 56 -598020 -1612957700 -1212280184 494944152 536687836
            1043085777 502284284 1572470781</internalNodes>
          <leafValues>
            -7.0770150423049927e-001 3.1426733732223511e-001</leafValues></_>
        <_>
          <internalNodes>
            0 -1 77 -8401 -424035874 -34081534 -386990089 2113662821
            1436764143 -134229760 -252838155</internalNodes>
          <leafValues>
            -5.4807925224304199e-001 4.1285595297813416e-001</leafValues></_>
        <_>
          <internalNodes>
            0 -1 42 -2143149822 -67249281 -75509313 -4194469 -68158025
            -5425 -268697634 -1068251573</internalNodes>
          <leafValues>
            -5.1917588710784912e-001 4.4574806094169617e-001</leafValues></_></weakClassifiers></_>
    <!-- stage 7 -->
    <_>
      <maxWeakCount>7</maxWeakCount>
      <stageThreshold>-1.7229142189025879e+000</stageThreshold>
      <weakClassifiers>
        <_>
          <internalNodes>
            0 -1 14 -289210369 -3073 -513 -8397861 -4194305 -613
            -67117057 -269484033</internalNodes>
          <leafValues>
            -7.6123076677322388e-001 2.9510959982872009e-001</leafValues></_>
        <_>
          <internalNodes>
            0 -1 12 -1410421282 -1078002178 -53813249 -1079071906
            -1685209089 -8602626 -1074872321 -352440694</internalNodes>
          <leafValues>
            -6.7639118432998657e-001 2.9746791720390320e-001</leafValues></_>
        <_>
          <internalNodes>
            0 -1 51 256 -136613387 -2129921 -32851 -1375994881
            -268452201 -6652225 -1342095212</internalNodes>
          <leafValues>
            -8.3031016588211060e-001 2.2867454588413239e-001</leafValues></_>
        <_>
          <internalNodes>
            0 -1 78 -1048830 1725951963 -653007328 -489769010 -657833
            1739569641 -678036672 -704708819</internalNodes>
          <leafValues>
            -6.2501627206802368e-001 3.4694489836692810e-001</leafValues></_>
        <_>
          <internalNodes>
            0 -1 45 1588076212 -577691705 -2118578819 2131443327
            157892045 2067347678 -1704192117 534724607</internalNodes>
          <leafValues>
            -6.2436127662658691e-001 3.3978468179702759e-001</leafValues></_>
        <_>
          <internalNodes>
            0 -1 63 -532233214 -571221201 -84939841 -530441 -204473377
            -88081175 -70255745 -532416985</internalNodes>
          <leafValues>
            -5.1218867301940918e-001 4.1953039169311523e-001</leafValues></_>
        <_>
          <internalNodes>
            0 -1 24 -806361522 -1945179442 -932336914 1388892159
            1373161813 156041165 -3253283 2071788543</internalNodes>
          <leafValues>
            -6.5608084201812744e-001 3.1477621197700500e-001</leafValues></_></weakClassifiers></_>
    <!-- stage 8 -->
    <_>
      <maxWeakCount>7</maxWeakCount>
      <stageThreshold>-2.2030794620513916e+000</stageThreshold>
      <weakClassifiers>
        <_>
          <internalNodes>
            0 -1 20 -65537 -1080623745 -1633755649 -1074071649 -74650625
            -8390225 -72613889 -335937</internalNodes>
          <leafValues>
            -7.6706135272979736e-001 1.4265537261962891e-001</leafValues></_>
        <_>
          <internalNodes>
            0 -1 79 -4 -1499463691 -676350020 -1107363844 -337709579
            533391781 -549388 -34603009</internalNodes>
          <leafValues>
            -6.0966122150421143e-001 3.6315843462944031e-001</leafValues></_>
        <_>
          <internalNodes>
            0 -1 55 -1058847998 -75499537 -573583361 -704648322
            -885005313 -1053253 -340001793 1081074466</internalNodes>
          <leafValues>
            -5.7826185226440430e-001 3.4292304515838623e-001</leafValues></_>
        <_>
          <internalNodes>
            0 -1 40 -68241476 1073489676 1071036858 1073522940
            1073555852 513546685 534525388 2147417983</internalNodes>
          <leafValues>
            -6.7451709508895874e-001 2.8598365187644958e-001</leafValues></_>
        <_>
          <internalNodes>
            0 -1 29 422854044 1065686329 530122559 1040130749
            -1169412113 -275248961 -1074854945 1071586043</internalNodes>
          <leafValues>
            -5.3868192434310913e-001 3.8505497574806213e-001</leafValues></_>
        <_>
          <internalNodes>
            0 -1 57 -1574468350 -67110401 -177735685 -671612961
            -572525585 -71566405 -152047617 1079492903</internalNodes>
          <leafValues>
            -5.4851353168487549e-001 3.7412625551223755e-001</leafValues></_>
        <_>
          <internalNodes>
            0 -1 10 -33 -50839681 -285278476 -1159532638 -134316033
            -557065 -21504257 -194772993</internalNodes>
          <leafValues>
            -4.1970273852348328e-001 4.8700544238090515e-001</leafValues></_></weakClassifiers></_>
    <!-- stage 9 -->
    <_>
      <maxWeakCount>7</maxWeakCount>
      <stageThreshold>-1.3649663925170898e+000</stageThreshold>
      <weakClassifiers>
        <_>
          <internalNodes>
            0 -1 16 -9437697 145745708 -38012961 -2105897 -604767269
            -5244421 -68158465 -1</internalNodes>
          <leafValues>
            -7.3937565088272095e-001 2.8284671902656555e-001</leafValues></_>
        <_>
          <internalNodes>
            0 -1 70 -32776 1062999032 -111584899 -34563 -344200563
            -4236806 -1343538187 -1644430544</internalNodes>
          <leafValues>
            -6.1567711830139160e-001 3.2785999774932861e-001</leafValues></_>
        <_>
          <internalNodes>
            0 -1 64 -1610607296 -40207929 -10486789 -69244459
            -1153434881 -71643237 -275927041 -1442839928</internalNodes>
          <leafValues>
            -6.7905902862548828e-001 2.5310519337654114e-001</leafValues></_>
        <_>
          <internalNodes>
            0 -1 44 -16386 -1076330532 -111404292 995629788 -608945156
            1073532637 -1419961860 -513</internalNodes>
          <leafValues>
            -4.7091493010520935e-001 4.1322046518325806e-001</leafValues></_>
        <_>
          <internalNodes>
            0 -1 9 -4941 -321205924 -560798472 -220576082 -71303825
            2088200933 -75252943 -243860649</internalNodes>
          <leafValues>
            -4.5726150274276733e-001 4.5107257366180420e-001</leafValues></_>
        <_>
          <internalNodes>
            0 -1 0 -1365070862 -30002209 -114593061 -1110785350
            -1842349377 -272923737 -353641989 -825573073</internalNodes>
          <leafValues>
            -5.1552402973175049e-001 3.8149124383926392e-001</leafValues></_>
        <_>
          <internalNodes>
            0 -1 43 -736041996 -644840540 -1083456225 396035005
            2058894056 -585509093 797003197 736035330</internalNodes>
          <leafValues>
            -6.0010135173797607e-001 3.2037645578384399e-001</leafValues></_></weakClassifiers></_>
    <!-- stage 10 -->
    <_>
      <maxWeakCount>9</maxWeakCount>
      <stageThreshold>-1.4407029151916504e+000</stageThreshold>
      <weakClassifiers>
        <_>
          <internalNodes>
            0 -1 73 -10481 -15601 -1181625089 -69209665 -87041297
            -70278521 -6292481 -4203553</internalNodes>
          <leafValues>
            -7.1511179208755493e-001 3.9977091550827026e-001</leafValues></_>
        <_>
          <internalNodes>
            0 -1 21 -1209224194 -2115594 -1753825541 -140666883
            -69206273 -1074100067 -1151615489 -1076916340</internalNodes>
          <leafValues>
            -5.5595213174819946e-001 3.2060784101486206e-001</leafValues></_>
        <_>
          <internalNodes>
            0 -1 53 -603996674 -1680026700 419706236 936393684
            -1347669252 463485048 530332668 -34</internalNodes>
          <leafValues>
            -4.5639476180076599e-001 3.9450564980506897e-001</leafValues></_>
        <_>
          <internalNodes>
            0 -1 19 520083711 352116479 -1090883843 -1715536513
            -11021317 2113200125 -10160641 -8454177</internalNodes>
          <leafValues>
            -3.8046541810035706e-001 4.7427660226821899e-001</leafValues></_>
        <_>
          <internalNodes>
            0 -1 60 -1069383678 -67111201 -44672645 -8390693 -559158593
            -75242982 872405999 1074774574</internalNodes>
          <leafValues>
            -5.5661261081695557e-001 3.3257073163986206e-001</leafValues></_>
        <_>
          <internalNodes>
            0 -1 67 -924335478 58897034 260201696 1368653389 -274230
            -1036328946 -437260625 1091041059</internalNodes>
          <leafValues>
            -5.7873553037643433e-001 2.9855573177337646e-001</leafValues></_>
        <_>
          <internalNodes>
            0 -1 18 -1008421844 -710941860 -683555841 -19213863
            1518862206 2032771863 -1014244662 -1078985867</internalNodes>
          <leafValues>
            -4.3415996432304382e-001 4.0092754364013672e-001</leafValues></_>
        <_>
          <internalNodes>
            0 -1 58 -1039727616 -542379957 1595912287 -610307213
            -78911157 -5523207 2031602687 1093650226</internalNodes>
          <leafValues>
            -6.0672020912170410e-001 3.0013787746429443e-001</leafValues></_>
        <_>
          <internalNodes>
            0 -1 8 -1379094834 870621411 1149240106 -1690030321
            1872539327 -26899710 -621003265 1577450491</internalNodes>
          <leafValues>
            -6.3545697927474976e-001 2.5451073050498962e-001</leafValues></_></weakClassifiers></_>
    <!-- stage 11 -->
    <_>
      <maxWeakCount>9</maxWeakCount>
      <stageThreshold>-1.4957311153411865e+000</stageThreshold>
      <weakClassifiers>
        <_>
          <internalNodes>
            0 -1 22 -290719753 -74450977 -646717441 -536873765 -68158465
            -6637161 -287572993 -290463745</internalNodes>
          <leafValues>
            -7.2165787220001221e-001 1.6769096255302429e-001</leafValues></_>
        <_>
          <internalNodes>
            0 -1 74 -202380282 1199004511 -352323833 -136315906
            -136846590 -164759081 -355729470 -487589125</internalNodes>
          <leafValues>
            -5.6122183799743652e-001 2.9360431432723999e-001</leafValues></_>
        <_>
          <internalNodes>
            0 -1 66 -537086180 924327860 -38576227 -6317251 2142993401
            -1140950545 -808567400 -1073795552</internalNodes>
          <leafValues>
            -5.5490845441818237e-001 2.9320052266120911e-001</leafValues></_>
        <_>
          <internalNodes>
            0 -1 38 -2082 -101143572 2142769028 -204702834 -495080016
            1002968887 2144293792 2080370639</internalNodes>
          <leafValues>
            -4.5759010314941406e-001 3.6298039555549622e-001</leafValues></_>
        <_>
          <internalNodes>
            0 -1 31 -1610612668 -67153430 -575212037 -9805511
            -1347774804 -4460123 -1173742850 966807680</internalNodes>
          <leafValues>
            -7.7846491336822510e-001 2.3094752430915833e-001</leafValues></_>
        <_>
          <internalNodes>
            0 -1 23 211775275 685765766 -548799005 -117441398 -203461633
            -125934703 1062857470 -67120161</internalNodes>
          <leafValues>
            -4.2442062497138977e-001 3.7191605567932129e-001</leafValues></_>
        <_>
          <internalNodes>
            0 -1 30 -442014974 -1466175089 -1793603625 -458230277
            -135533569 -22074461 -5517673 -953686902</internalNodes>
          <leafValues>
            -3.9465707540512085e-001 4.1652318835258484e-001</leafValues></_>
        <_>
          <internalNodes>
            0 -1 65 -17844004 979905348 999570588 1037965871 1052261864
            254023198 507779006 2147482619</internalNodes>
          <leafValues>
            -6.0141855478286743e-001 2.6494762301445007e-001</leafValues></_>
        <_>
          <internalNodes>
            0 -1 52 -791682238 806408689 -502901032 291687103
            -1861133888 2030565588 1167172091 -816316549</internalNodes>
          <leafValues>
            -4.6643012762069702e-001 3.4005048871040344e-001</leafValues></_></weakClassifiers></_>
    <!-- stage 12 -->
    <_>
      <maxWeakCount>9</maxWeakCount>
      <stageThreshold>-1.5644381046295166e+000</stageThreshold>
      <weakClassifiers>
        <_>
          <internalNodes>
            0 -1 17 -8388609 -1147158541 -32407617 -1080034817
            -542384641 -6557185 -70522374 -1</internalNodes>
          <leafValues>
            -6.7361241579055786e-001 4.5768025517463684e-001</leafValues></_>
        <_>
          <internalNodes>
            0 -1 4 -261161738 -69994753 -74329089 113680910 -1094216705
            -39632837 -1450453539 1258284027</internalNodes>
          <leafValues>
            -5.9299868345260620e-001 2.3711915314197540e-001</leafValues></_>
        <_>
          <internalNodes>
            0 -1 80 -2097733 -543898713 -1223951072 -539561042
            -1913128484 1068483315 -140651232 -704643073</internalNodes>
          <leafValues>
            -4.1020125150680542e-001 4.1887092590332031e-001</leafValues></_>
        <_>
          <internalNodes>
            0 -1 72 -1873805248 -604505095 -71574017 -42153 -342116018
            -1103367253 -892420113 -1441836729</internalNodes>
          <leafValues>
            -5.0804758071899414e-001 3.2032066583633423e-001</leafValues></_>
        <_>
          <internalNodes>
            0 -1 36 455622456 1071153876 -1229689475 1069406205
            -621741060 -876970252 1803173627 -292944595</internalNodes>
          <leafValues>
            -5.4814893007278442e-001 2.9978933930397034e-001</leafValues></_>
        <_>
          <internalNodes>
            0 -1 39 543630850 -140778625 -258488101 -73402433 -2660097
            -67386694 -573836357 1075307554</internalNodes>
          <leafValues>
            -6.0803449153900146e-001 2.4586419761180878e-001</leafValues></_>
        <_>
          <internalNodes>
            0 -1 2 -823341329 -1768207147 -59447570 -1362540006
            1464410437 876831170 -548408330 -10557700</internalNodes>
          <leafValues>
            -4.3961486220359802e-001 3.3488395810127258e-001</leafValues></_>
        <_>
          <internalNodes>
            0 -1 69 -17912324 -44550152 520096520 501612996 997056788
            423699625 1340662232 1878917103</internalNodes>
          <leafValues>
            -5.8506870269775391e-001 2.6074817776679993e-001</leafValues></_>
        <_>
          <internalNodes>
            0 -1 41 -532426206 1547766112 1351904504 -1215563629
            543539842 17142793 1430762203 -539492385</internalNodes>
          <leafValues>
            -4.8559477925300598e-001 3.3103951811790466e-001</leafValues></_></weakClassifiers></_></stages>
  <features>
    <_>
      <rect>
        0 0 4 1</rect></_>
    <_>
      <rect>
        0 0 6 1</rect></_>
    <_>
      <rect>
        0 1 1 2</rect></_>
    <_>
      <rect>
        0 1 2 2</rect></_>
    <_>
      <rect>
        0 1 7 1</rect></_>
    <_>
      <rect>
        0 3 2 1</rect></_>
    <_>
      <rect>
        0 4 2 2</rect></_>
    <_>
      <rect>
        0 5 1 1</rect></_>
    <_>
      <rect>
        0 5 15 2</rect></_>
    <_>
      <rect>
        0 7 1 1</rect></_>
    <_>
      <rect>
        0 7 2 1</rect></_>
    <_>
      <rect>
        0 8 4 1</rect></_>
    <_>
      <rect>
        0 8 9 1</rect></_>
    <_>
      <rect>
        0 8 12 1</rect></_>
    <_>
      <rect>
        1 0 3 1</rect></_>
    <_>
      <rect>
        1 0 11 1</rect></_>
    <_>
      <rect>
        1 1 2 1</rect></_>
    <_>
      <rect>
        1 2 2 2</rect></_>
    <_>
      <rect>
        1 4 1 2</rect></_>
    <_>
      <rect>
        1 5 2 2</rect></_>
    <_>
      <rect>
        1 8 3 1</rect></_>
    <_>
      <rect>
        1 8 15 1</rect></_>
    <_>
      <rect>
        2 0 2 1</rect></_>
    <_>
      <rect>
        3 1 1 2</rect></_>
    <_>
      <rect>
        3 4 2 2</rect></_>
    <_>
      <rect>
        4 0 6 1</rect></_>
    <_>
      <rect>
        4 0 12 1</rect></_>
    <_>
      <rect>
        4 3 1 2</rect></_>
    <_>
      <rect>
        4 8 13 1</rect></_>
    <_>
      <rect>
        5 7 13 1</rect></_>
    <_>
      <rect>
        6 0 1 2</rect></_>
    <_>
      <rect>
        6 0 3 1</rect></_>
    <_>
      <rect>
        7 1 11 1</rect></_>
    <_>
      <rect>
        8 0 12 1</rect></_>
    <_>
      <rect>
        8 7 10 1</rect></_>
    <_>
      <rect>
        9 0 6 1</rect></_>
    <_>
      <rect>
        9 8 5 1</rect></_>
    <_>
      <rect>
        9 8 10 1</rect></_>
    <_>
      <rect>
        10 2 1 3</rect></_>
    <_>
      <rect>
        11 0 1 2</rect></_>
    <_>
      <rect>
        12 5 1 2</rect></_>
    <_>
      <rect>
        12 5 7 1</rect></_>
    <_>
      <rect>
        13 0 1 2</rect></_>
    <_>
      <rect>
        14 1 10 1</rect></_>
    <_>
      <rect>
        14 5 1 2</rect></_>
    <_>
      <rect>
        14 7 9 1</rect></_>
    <_>
      <rect>
        15 1 8 1</rect></_>
    <_>
      <rect>
        15 5 1 2</rect></_>
    <_>
      <rect>
        16 0 8 1</rect></_>
    <_>
      <rect>
        17 8 9 1</rect></_>
    <_>
      <rect>
        18 1 1 2</rect></_>
    <_>
      <rect>
        19 0 2 1</rect></_>
    <_>
      <rect>
        21 5 6 1</rect></_>
    <_>
      <rect>
        22 5 1 2</rect></_>
    <_>
      <rect>
        23 0 7 1</rect></_>
    <_>
      <rect>
        25 0 1 2</rect></_>
    <_>
      <rect>
        25 5 1 2</rect></_>
    <_>
      <rect>
        26 0 1 2</rect></_>
    <_>
      <rect>
        27 0 1 2</rect></_>
    <_>
      <rect>
        27 2 2 2</rect></_>
    <_>
      <rect>
        28 0 1 2</rect></_>
    <_>
      <rect>
        28 5 2 2</rect></_>
    <_>
      <rect>
        28 8 4 1</rect></_>
    <_>
      <rect>
        29 0 1 2</rect></_>
    <_>
      <rect>
        29 0 3 1</rect></_>
    <_>
      <rect>
        29 5 2 2</rect></_>
    <_>
      <rect>
        29 8 6 1</rect></_>
    <_>
      <rect>
        32 1 2 2</rect></_>
    <_>
      <rect>
        33 5 1 2</rect></_>
    <_>
      <rect>
        35 2 1 3</rect></_>
    <_>
      <rect>
        35 8 4 1</rect></_>
    <_>
      <rect>
        36 2 1 2</rect></_>
    <_>
      <rect>
        37 0 3 1</rect></_>
    <_>
      <rect>
        44 0 1 1</rect></_>
    <_>
      <rect>
        44 1 1 1</rect></_>
    <_>
      <rect>
        44 2 1 1</rect></_>
    <_>
      <rect>
        44 2 1 2</rect></_>
    <_>
      <rect>
        44 4 1 1</rect></_>
    <_>
      <rect>
        44 5 1 1</rect></_>
    <_>
      <rect>
        44 5 1 2</rect></_>
    <_>
      <rect>
        44 7 1 1</rect></_></features></cascade>
</opencv_storage>
