<?xml version="1.0"?>
<opencv_storage>
<cascade>
  <stageType>BOOST</stageType>
  <featureType>HAAR</featureType>
  <height>14</height>
  <width>19</width>
  <stageParams>
    <boostType>GAB</boostType>
    <minHitRate>9.9500000476837158e-001</minHitRate>
    <maxFalseAlarm>4.4999998807907104e-001</maxFalseAlarm>
    <weightTrimRate>9.4999999999999996e-001</weightTrimRate>
    <maxDepth>1</maxDepth>
    <maxWeakCount>100</maxWeakCount></stageParams>
  <featureParams>
    <maxCatCount>0</maxCatCount>
    <featSize>1</featSize>
    <mode>BASIC</mode></featureParams>
  <stageNum>13</stageNum>
  <stages>
    <!-- stage 0 -->
    <_>
      <maxWeakCount>7</maxWeakCount>
      <stageThreshold>-2.1965250968933105e+000</stageThreshold>
      <weakClassifiers>
        <_>
          <internalNodes>
            0 -1 77 -5.0349188968539238e-003</internalNodes>
          <leafValues>
            5.8769232034683228e-001 -8.0940747261047363e-001</leafValues></_>
        <_>
          <internalNodes>
            0 -1 53 4.2269900441169739e-002</internalNodes>
          <leafValues>
            -7.9508966207504272e-001 4.7650772333145142e-001</leafValues></_>
        <_>
          <internalNodes>
            0 -1 118 -1.3248022645711899e-002</internalNodes>
          <leafValues>
            7.7844011783599854e-001 -4.3301275372505188e-001</leafValues></_>
        <_>
          <internalNodes>
            0 -1 35 1.4865477569401264e-003</internalNodes>
          <leafValues>
            -5.1331907510757446e-001 5.2518326044082642e-001</leafValues></_>
        <_>
          <internalNodes>
            0 -1 76 -2.1739895455539227e-003</internalNodes>
          <leafValues>
            6.8544715642929077e-001 -3.7458279728889465e-001</leafValues></_>
        <_>
          <internalNodes>
            0 -1 89 -2.1618017926812172e-002</internalNodes>
          <leafValues>
            8.4546172618865967e-001 -2.5160583853721619e-001</leafValues></_>
        <_>
          <internalNodes>
            0 -1 81 -1.3381520286202431e-002</internalNodes>
          <leafValues>
            8.2088649272918701e-001 -2.3096044361591339e-001</leafValues></_></weakClassifiers></_>
    <!-- stage 1 -->
    <_>
      <maxWeakCount>8</maxWeakCount>
      <stageThreshold>-2.3493330478668213e+000</stageThreshold>
      <weakClassifiers>
        <_>
          <internalNodes>
            0 -1 28 -6.5242439508438110e-002</internalNodes>
          <leafValues>
            3.5395190119743347e-001 -8.5755878686904907e-001</leafValues></_>
        <_>
          <internalNodes>
            0 -1 41 -1.6414748504757881e-002</internalNodes>
          <leafValues>
            6.2822633981704712e-001 -6.3262665271759033e-001</leafValues></_>
        <_>
          <internalNodes>
            0 -1 88 -1.3212457299232483e-002</internalNodes>
          <leafValues>
            7.4731922149658203e-001 -4.2459067702293396e-001</leafValues></_>
        <_>
          <internalNodes>
            0 -1 146 6.8160910159349442e-003</internalNodes>
          <leafValues>
            -2.8386783599853516e-001 8.2160681486129761e-001</leafValues></_>
        <_>
          <internalNodes>
            0 -1 141 -1.7101094126701355e-002</internalNodes>
          <leafValues>
            7.6596939563751221e-001 -2.8668397665023804e-001</leafValues></_>
        <_>
          <internalNodes>
            0 -1 156 1.4885722193866968e-003</internalNodes>
          <leafValues>
            -3.8392567634582520e-001 5.8185040950775146e-001</leafValues></_>
        <_>
          <internalNodes>
            0 -1 39 -1.3574158772826195e-002</internalNodes>
          <leafValues>
            7.2637325525283813e-001 -3.2111969590187073e-001</leafValues></_>
        <_>
          <internalNodes>
            0 -1 31 -1.6188263893127441e-002</internalNodes>
          <leafValues>
            7.3853224515914917e-001 -2.6443445682525635e-001</leafValues></_></weakClassifiers></_>
    <!-- stage 2 -->
    <_>
      <maxWeakCount>8</maxWeakCount>
      <stageThreshold>-1.7362728118896484e+000</stageThreshold>
      <weakClassifiers>
        <_>
          <internalNodes>
            0 -1 103 -5.5491350591182709e-002</internalNodes>
          <leafValues>
            4.2943853139877319e-001 -7.7191907167434692e-001</leafValues></_>
        <_>
          <internalNodes>
            0 -1 124 2.8095678426325321e-003</internalNodes>
          <leafValues>
            -6.2999618053436279e-001 4.3304353952407837e-001</leafValues></_>
        <_>
          <internalNodes>
            0 -1 0 1.8789750174619257e-004</internalNodes>
          <leafValues>
            -5.8486342430114746e-001 4.3666934967041016e-001</leafValues></_>
        <_>
          <internalNodes>
            0 -1 44 1.6132099553942680e-002</internalNodes>
          <leafValues>
            -3.8544899225234985e-001 7.0356833934783936e-001</leafValues></_>
        <_>
          <internalNodes>
            0 -1 119 1.3351861387491226e-002</internalNodes>
          <leafValues>
            -2.5437277555465698e-001 7.9454720020294189e-001</leafValues></_>
        <_>
          <internalNodes>
            0 -1 97 1.6258122399449348e-002</internalNodes>
          <leafValues>
            -2.7531328797340393e-001 7.2317385673522949e-001</leafValues></_>
        <_>
          <internalNodes>
            0 -1 107 9.8483823239803314e-003</internalNodes>
          <leafValues>
            -3.4296327829360962e-001 6.7107450962066650e-001</leafValues></_>
        <_>
          <internalNodes>
            0 -1 38 5.9751686640083790e-003</internalNodes>
          <leafValues>
            -4.4214814901351929e-001 4.8707145452499390e-001</leafValues></_></weakClassifiers></_>
    <!-- stage 3 -->
    <_>
      <maxWeakCount>10</maxWeakCount>
      <stageThreshold>-1.8164665699005127e+000</stageThreshold>
      <weakClassifiers>
        <_>
          <internalNodes>
            0 -1 148 -2.6346586644649506e-002</internalNodes>
          <leafValues>
            4.9129593372344971e-001 -7.1836972236633301e-001</leafValues></_>
        <_>
          <internalNodes>
            0 -1 26 -4.7353185713291168e-002</internalNodes>
          <leafValues>
            3.1541752815246582e-001 -7.1449643373489380e-001</leafValues></_>
        <_>
          <internalNodes>
            0 -1 84 2.0282134413719177e-002</internalNodes>
          <leafValues>
            -3.3322894573211670e-001 6.8760454654693604e-001</leafValues></_>
        <_>
          <internalNodes>
            0 -1 50 1.2068657577037811e-001</internalNodes>
          <leafValues>
            -5.0995749235153198e-001 3.7238472700119019e-001</leafValues></_>
        <_>
          <internalNodes>
            0 -1 134 1.5373773872852325e-002</internalNodes>
          <leafValues>
            -2.2112807631492615e-001 7.1712863445281982e-001</leafValues></_>
        <_>
          <internalNodes>
            0 -1 96 4.4105507433414459e-002</internalNodes>
          <leafValues>
            -2.7164825797080994e-001 6.3108903169631958e-001</leafValues></_>
        <_>
          <internalNodes>
            0 -1 21 1.6615539789199829e-002</internalNodes>
          <leafValues>
            -2.7610701322555542e-001 5.6223458051681519e-001</leafValues></_>
        <_>
          <internalNodes>
            0 -1 71 2.8863737359642982e-002</internalNodes>
          <leafValues>
            2.0312559604644775e-001 -7.5325542688369751e-001</leafValues></_>
        <_>
          <internalNodes>
            0 -1 75 2.1978050936013460e-003</internalNodes>
          <leafValues>
            -3.0667823553085327e-001 4.3668356537818909e-001</leafValues></_>
        <_>
          <internalNodes>
            0 -1 128 -3.2576522789895535e-003</internalNodes>
          <leafValues>
            5.6040424108505249e-001 -2.4003826081752777e-001</leafValues></_></weakClassifiers></_>
    <!-- stage 4 -->
    <_>
      <maxWeakCount>11</maxWeakCount>
      <stageThreshold>-2.0178687572479248e+000</stageThreshold>
      <weakClassifiers>
        <_>
          <internalNodes>
            0 -1 117 -3.0017115175724030e-002</internalNodes>
          <leafValues>
            4.6288210153579712e-001 -7.0257389545440674e-001</leafValues></_>
        <_>
          <internalNodes>
            0 -1 121 -1.7914634197950363e-002</internalNodes>
          <leafValues>
            6.0599684715270996e-001 -4.5427551865577698e-001</leafValues></_>
        <_>
          <internalNodes>
            0 -1 85 8.8893510401248932e-003</internalNodes>
          <leafValues>
            -6.8497401475906372e-001 3.3667099475860596e-001</leafValues></_>
        <_>
          <internalNodes>
            0 -1 61 -1.8969625234603882e-003</internalNodes>
          <leafValues>
            4.7824302315711975e-001 -3.7724903225898743e-001</leafValues></_>
        <_>
          <internalNodes>
            0 -1 80 -4.6104192733764648e-003</internalNodes>
          <leafValues>
            3.9322552084922791e-001 -3.9382594823837280e-001</leafValues></_>
        <_>
          <internalNodes>
            0 -1 149 -1.9607188180088997e-002</internalNodes>
          <leafValues>
            5.6499826908111572e-001 -2.3196318745613098e-001</leafValues></_>
        <_>
          <internalNodes>
            0 -1 161 2.7517462149262428e-004</internalNodes>
          <leafValues>
            -3.9000499248504639e-001 3.6059027910232544e-001</leafValues></_>
        <_>
          <internalNodes>
            0 -1 89 -2.4394299834966660e-002</internalNodes>
          <leafValues>
            5.5435144901275635e-001 -2.5170102715492249e-001</leafValues></_>
        <_>
          <internalNodes>
            0 -1 29 -1.2025225907564163e-002</internalNodes>
          <leafValues>
            2.9881539940834045e-001 -5.0545454025268555e-001</leafValues></_>
        <_>
          <internalNodes>
            0 -1 152 8.1162359565496445e-003</internalNodes>
          <leafValues>
            -2.0976519584655762e-001 5.4782921075820923e-001</leafValues></_>
        <_>
          <internalNodes>
            0 -1 3 -9.4001665711402893e-003</internalNodes>
          <leafValues>
            5.7432520389556885e-001 -2.0922008156776428e-001</leafValues></_></weakClassifiers></_>
    <!-- stage 5 -->
    <_>
      <maxWeakCount>9</maxWeakCount>
      <stageThreshold>-2.2065162658691406e+000</stageThreshold>
      <weakClassifiers>
        <_>
          <internalNodes>
            0 -1 112 -2.5121022015810013e-002</internalNodes>
          <leafValues>
            4.9598392844200134e-001 -7.2700870037078857e-001</leafValues></_>
        <_>
          <internalNodes>
            0 -1 145 2.7133351191878319e-002</internalNodes>
          <leafValues>
            -3.9432257413864136e-001 7.0097804069519043e-001</leafValues></_>
        <_>
          <internalNodes>
            0 -1 10 -6.3954949378967285e-002</internalNodes>
          <leafValues>
            6.3316625356674194e-001 -3.2706025242805481e-001</leafValues></_>
        <_>
          <internalNodes>
            0 -1 122 -2.8727471828460693e-002</internalNodes>
          <leafValues>
            7.4094915390014648e-001 -2.2765366733074188e-001</leafValues></_>
        <_>
          <internalNodes>
            0 -1 154 2.3159345611929893e-002</internalNodes>
          <leafValues>
            -2.2017997503280640e-001 6.8092775344848633e-001</leafValues></_>
        <_>
          <internalNodes>
            0 -1 110 -7.5339868664741516e-002</internalNodes>
          <leafValues>
            4.8953184485435486e-001 -3.3701866865158081e-001</leafValues></_>
        <_>
          <internalNodes>
            0 -1 58 -2.0603358745574951e-002</internalNodes>
          <leafValues>
            5.9066992998123169e-001 -2.3525075614452362e-001</leafValues></_>
        <_>
          <internalNodes>
            0 -1 9 7.8628614544868469e-002</internalNodes>
          <leafValues>
            -6.1409521102905273e-001 2.4795389175415039e-001</leafValues></_>
        <_>
          <internalNodes>
            0 -1 143 -3.9076365530490875e-002</internalNodes>
          <leafValues>
            7.3836737871170044e-001 -2.1922704577445984e-001</leafValues></_></weakClassifiers></_>
    <!-- stage 6 -->
    <_>
      <maxWeakCount>14</maxWeakCount>
      <stageThreshold>-1.7631274461746216e+000</stageThreshold>
      <weakClassifiers>
        <_>
          <internalNodes>
            0 -1 148 -5.0189919769763947e-002</internalNodes>
          <leafValues>
            6.2105262279510498e-001 -6.4657485485076904e-001</leafValues></_>
        <_>
          <internalNodes>
            0 -1 12 -3.2903529703617096e-002</internalNodes>
          <leafValues>
            2.6076066493988037e-001 -5.7571148872375488e-001</leafValues></_>
        <_>
          <internalNodes>
            0 -1 17 4.6148609369993210e-002</internalNodes>
          <leafValues>
            -6.0438239574432373e-001 2.3693850636482239e-001</leafValues></_>
        <_>
          <internalNodes>
            0 -1 67 5.6655243039131165e-002</internalNodes>
          <leafValues>
            -3.4418776631355286e-001 4.0519770979881287e-001</leafValues></_>
        <_>
          <internalNodes>
            0 -1 57 2.2700296714901924e-002</internalNodes>
          <leafValues>
            -1.8879105150699615e-001 6.1663269996643066e-001</leafValues></_>
        <_>
          <internalNodes>
            0 -1 79 -5.5856101214885712e-002</internalNodes>
          <leafValues>
            6.1443948745727539e-001 -2.0968705415725708e-001</leafValues></_>
        <_>
          <internalNodes>
            0 -1 27 7.0279821753501892e-002</internalNodes>
          <leafValues>
            -2.7527269721031189e-001 4.8318564891815186e-001</leafValues></_>
        <_>
          <internalNodes>
            0 -1 104 7.9850330948829651e-003</internalNodes>
          <leafValues>
            -1.7033891379833221e-001 5.8831483125686646e-001</leafValues></_>
        <_>
          <internalNodes>
            0 -1 115 1.8876716494560242e-002</internalNodes>
          <leafValues>
            -1.7875507473945618e-001 6.8280011415481567e-001</leafValues></_>
        <_>
          <internalNodes>
            0 -1 135 -2.7634127065539360e-002</internalNodes>
          <leafValues>
            7.1452814340591431e-001 -1.2523379921913147e-001</leafValues></_>
        <_>
          <internalNodes>
            0 -1 15 -1.2818980030715466e-002</internalNodes>
          <leafValues>
            -7.7518635988235474e-001 1.6496033966541290e-001</leafValues></_>
        <_>
          <internalNodes>
            0 -1 33 -2.9303032904863358e-002</internalNodes>
          <leafValues>
            6.2002438306808472e-001 -1.9820921123027802e-001</leafValues></_>
        <_>
          <internalNodes>
            0 -1 66 -2.4012673646211624e-002</internalNodes>
          <leafValues>
            5.0322395563125610e-001 -2.1643757820129395e-001</leafValues></_>
        <_>
          <internalNodes>
            0 -1 90 2.3435628972947598e-003</internalNodes>
          <leafValues>
            -3.0562534928321838e-001 3.2918694615364075e-001</leafValues></_></weakClassifiers></_>
    <!-- stage 7 -->
    <_>
      <maxWeakCount>16</maxWeakCount>
      <stageThreshold>-2.1300003528594971e+000</stageThreshold>
      <weakClassifiers>
        <_>
          <internalNodes>
            0 -1 142 5.4613739252090454e-002</internalNodes>
          <leafValues>
            -6.9281941652297974e-001 2.6666668057441711e-001</leafValues></_>
        <_>
          <internalNodes>
            0 -1 96 6.6140428185462952e-002</internalNodes>
          <leafValues>
            -3.5498264431953430e-001 5.2062201499938965e-001</leafValues></_>
        <_>
          <internalNodes>
            0 -1 73 2.4546105414628983e-002</internalNodes>
          <leafValues>
            -6.7207241058349609e-001 2.2594505548477173e-001</leafValues></_>
        <_>
          <internalNodes>
            0 -1 69 6.7541573662310839e-004</internalNodes>
          <leafValues>
            -6.1179977655410767e-001 2.0971433818340302e-001</leafValues></_>
        <_>
          <internalNodes>
            0 -1 137 2.2390466183423996e-002</internalNodes>
          <leafValues>
            -2.0826593041419983e-001 5.7384502887725830e-001</leafValues></_>
        <_>
          <internalNodes>
            0 -1 95 2.7347952127456665e-002</internalNodes>
          <leafValues>
            -2.1051609516143799e-001 5.5557942390441895e-001</leafValues></_>
        <_>
          <internalNodes>
            0 -1 159 4.0126657113432884e-003</internalNodes>
          <leafValues>
            2.1863636374473572e-001 -6.5238308906555176e-001</leafValues></_>
        <_>
          <internalNodes>
            0 -1 159 -3.2262369059026241e-003</internalNodes>
          <leafValues>
            -6.6403573751449585e-001 1.4546100795269012e-001</leafValues></_>
        <_>
          <internalNodes>
            0 -1 40 2.5167254731059074e-002</internalNodes>
          <leafValues>
            -2.3912651836872101e-001 4.5511311292648315e-001</leafValues></_>
        <_>
          <internalNodes>
            0 -1 6 3.0539471656084061e-002</internalNodes>
          <leafValues>
            -1.7978931963443756e-001 5.7947903871536255e-001</leafValues></_>
        <_>
          <internalNodes>
            0 -1 49 -6.7568579688668251e-003</internalNodes>
          <leafValues>
            4.0667086839675903e-001 -2.6044118404388428e-001</leafValues></_>
        <_>
          <internalNodes>
            0 -1 123 8.7530482560396194e-003</internalNodes>
          <leafValues>
            -2.6159551739692688e-001 3.8563683629035950e-001</leafValues></_>
        <_>
          <internalNodes>
            0 -1 18 -3.0390832573175430e-002</internalNodes>
          <leafValues>
            4.0109658241271973e-001 -2.5787481665611267e-001</leafValues></_>
        <_>
          <internalNodes>
            0 -1 162 3.3926690230146050e-004</internalNodes>
          <leafValues>
            -4.3772101402282715e-001 2.1784952282905579e-001</leafValues></_>
        <_>
          <internalNodes>
            0 -1 92 8.1963622942566872e-003</internalNodes>
          <leafValues>
            -5.1019668579101563e-001 1.8602311611175537e-001</leafValues></_>
        <_>
          <internalNodes>
            0 -1 46 -6.8535983562469482e-002</internalNodes>
          <leafValues>
            -7.7145230770111084e-001 1.1266000568866730e-001</leafValues></_></weakClassifiers></_>
    <!-- stage 8 -->
    <_>
      <maxWeakCount>15</maxWeakCount>
      <stageThreshold>-1.9561221599578857e+000</stageThreshold>
      <weakClassifiers>
        <_>
          <internalNodes>
            0 -1 157 3.6426179111003876e-002</internalNodes>
          <leafValues>
            -6.5105128288269043e-001 3.6400541663169861e-001</leafValues></_>
        <_>
          <internalNodes>
            0 -1 11 -3.7736460566520691e-002</internalNodes>
          <leafValues>
            3.5984325408935547e-001 -4.3417289853096008e-001</leafValues></_>
        <_>
          <internalNodes>
            0 -1 32 -3.3700034022331238e-002</internalNodes>
          <leafValues>
            4.4783002138137817e-001 -3.2171291112899780e-001</leafValues></_>
        <_>
          <internalNodes>
            0 -1 120 3.4132279455661774e-002</internalNodes>
          <leafValues>
            -4.0802615880966187e-001 2.9756537079811096e-001</leafValues></_>
        <_>
          <internalNodes>
            0 -1 139 9.1364141553640366e-003</internalNodes>
          <leafValues>
            -2.9289016127586365e-001 3.5671111941337585e-001</leafValues></_>
        <_>
          <internalNodes>
            0 -1 43 2.7626484632492065e-002</internalNodes>
          <leafValues>
            1.7147357761859894e-001 -7.2324544191360474e-001</leafValues></_>
        <_>
          <internalNodes>
            0 -1 16 -1.2775385985150933e-003</internalNodes>
          <leafValues>
            -6.0378026962280273e-001 1.3011075556278229e-001</leafValues></_>
        <_>
          <internalNodes>
            0 -1 16 2.5969496928155422e-003</internalNodes>
          <leafValues>
            1.7729553580284119e-001 -7.2513216733932495e-001</leafValues></_>
        <_>
          <internalNodes>
            0 -1 83 -2.6899050921201706e-002</internalNodes>
          <leafValues>
            4.4622820615768433e-001 -2.3270210623741150e-001</leafValues></_>
        <_>
          <internalNodes>
            0 -1 76 -3.7555233575403690e-003</internalNodes>
          <leafValues>
            4.3459665775299072e-001 -2.3236440122127533e-001</leafValues></_>
        <_>
          <internalNodes>
            0 -1 34 -4.0945790708065033e-002</internalNodes>
          <leafValues>
            5.8862817287445068e-001 -1.6168574988842010e-001</leafValues></_>
        <_>
          <internalNodes>
            0 -1 7 9.6622437238693237e-002</internalNodes>
          <leafValues>
            -4.2279487848281860e-001 2.2999107837677002e-001</leafValues></_>
        <_>
          <internalNodes>
            0 -1 138 -5.3476039320230484e-002</internalNodes>
          <leafValues>
            4.6385952830314636e-001 -2.2767004370689392e-001</leafValues></_>
        <_>
          <internalNodes>
            0 -1 24 -4.2048476636409760e-002</internalNodes>
          <leafValues>
            -6.8473237752914429e-001 1.5287758409976959e-001</leafValues></_>
        <_>
          <internalNodes>
            0 -1 91 3.2818089239299297e-003</internalNodes>
          <leafValues>
            9.1599464416503906e-002 -8.0838167667388916e-001</leafValues></_></weakClassifiers></_>
    <!-- stage 9 -->
    <_>
      <maxWeakCount>16</maxWeakCount>
      <stageThreshold>-2.0401296615600586e+000</stageThreshold>
      <weakClassifiers>
        <_>
          <internalNodes>
            0 -1 82 3.7888057529926300e-002</internalNodes>
          <leafValues>
            -6.4953011274337769e-001 3.5967302322387695e-001</leafValues></_>
        <_>
          <internalNodes>
            0 -1 102 1.4979574829339981e-002</internalNodes>
          <leafValues>
            -4.1059830784797668e-001 3.6024346947669983e-001</leafValues></_>
        <_>
          <internalNodes>
            0 -1 93 5.8864625170826912e-003</internalNodes>
          <leafValues>
            -6.0243529081344604e-001 2.1658508479595184e-001</leafValues></_>
        <_>
          <internalNodes>
            0 -1 100 7.6232536230236292e-004</internalNodes>
          <leafValues>
            -4.2759111523628235e-001 2.5518265366554260e-001</leafValues></_>
        <_>
          <internalNodes>
            0 -1 151 -2.6498962193727493e-002</internalNodes>
          <leafValues>
            4.8332831263542175e-001 -2.1046467125415802e-001</leafValues></_>
        <_>
          <internalNodes>
            0 -1 76 -2.7863364666700363e-003</internalNodes>
          <leafValues>
            3.6642587184906006e-001 -2.7090889215469360e-001</leafValues></_>
        <_>
          <internalNodes>
            0 -1 4 1.4961151406168938e-002</internalNodes>
          <leafValues>
            -3.8535326719284058e-001 2.7044260501861572e-001</leafValues></_>
        <_>
          <internalNodes>
            0 -1 133 2.4808792397379875e-002</internalNodes>
          <leafValues>
            -1.8715718388557434e-001 5.2539414167404175e-001</leafValues></_>
        <_>
          <internalNodes>
            0 -1 130 -2.0571082830429077e-002</internalNodes>
          <leafValues>
            6.2283140420913696e-001 -1.6497607529163361e-001</leafValues></_>
        <_>
          <internalNodes>
            0 -1 13 1.9649607129395008e-003</internalNodes>
          <leafValues>
            1.6161786019802094e-001 -5.7213026285171509e-001</leafValues></_>
        <_>
          <internalNodes>
            0 -1 165 -2.8889023233205080e-003</internalNodes>
          <leafValues>
            3.8243004679679871e-001 -2.3430836200714111e-001</leafValues></_>
        <_>
          <internalNodes>
            0 -1 64 -3.2303217798471451e-002</internalNodes>
          <leafValues>
            5.6349331140518188e-001 -1.6342194378376007e-001</leafValues></_>
        <_>
          <internalNodes>
            0 -1 65 -2.7633164077997208e-002</internalNodes>
          <leafValues>
            -6.7070573568344116e-001 1.3592377305030823e-001</leafValues></_>
        <_>
          <internalNodes>
            0 -1 63 2.3386087268590927e-002</internalNodes>
          <leafValues>
            -1.6792197525501251e-001 5.3545081615447998e-001</leafValues></_>
        <_>
          <internalNodes>
            0 -1 56 2.6412647217512131e-002</internalNodes>
          <leafValues>
            -1.5863138437271118e-001 5.8752530813217163e-001</leafValues></_>
        <_>
          <internalNodes>
            0 -1 99 4.3750442564487457e-002</internalNodes>
          <leafValues>
            -5.8063131570816040e-001 1.7862883210182190e-001</leafValues></_></weakClassifiers></_>
    <!-- stage 10 -->
    <_>
      <maxWeakCount>21</maxWeakCount>
      <stageThreshold>-2.0701606273651123e+000</stageThreshold>
      <weakClassifiers>
        <_>
          <internalNodes>
            0 -1 113 -4.6083208173513412e-002</internalNodes>
          <leafValues>
            2.2133938968181610e-001 -6.5454542636871338e-001</leafValues></_>
        <_>
          <internalNodes>
            0 -1 45 2.2348340600728989e-002</internalNodes>
          <leafValues>
            -3.8002133369445801e-001 3.6714264750480652e-001</leafValues></_>
        <_>
          <internalNodes>
            0 -1 19 -7.8234151005744934e-003</internalNodes>
          <leafValues>
            3.0824416875839233e-001 -4.2222639918327332e-001</leafValues></_>
        <_>
          <internalNodes>
            0 -1 121 -2.8104193508625031e-002</internalNodes>
          <leafValues>
            5.6455731391906738e-001 -1.9687841832637787e-001</leafValues></_>
        <_>
          <internalNodes>
            0 -1 87 1.6879586037248373e-003</internalNodes>
          <leafValues>
            -5.4646050930023193e-001 2.1222545206546783e-001</leafValues></_>
        <_>
          <internalNodes>
            0 -1 105 1.2556557776406407e-003</internalNodes>
          <leafValues>
            2.8000187873840332e-001 -3.9289668202400208e-001</leafValues></_>
        <_>
          <internalNodes>
            0 -1 59 -4.4512385502457619e-003</internalNodes>
          <leafValues>
            2.9416078329086304e-001 -3.2820776104927063e-001</leafValues></_>
        <_>
          <internalNodes>
            0 -1 142 2.6594296097755432e-002</internalNodes>
          <leafValues>
            -2.7306184172630310e-001 3.3234390616416931e-001</leafValues></_>
        <_>
          <internalNodes>
            0 -1 160 -2.8895484283566475e-003</internalNodes>
          <leafValues>
            -7.5598841905593872e-001 1.1460603028535843e-001</leafValues></_>
        <_>
          <internalNodes>
            0 -1 30 8.2102209329605103e-002</internalNodes>
          <leafValues>
            -1.5062193572521210e-001 6.8489462137222290e-001</leafValues></_>
        <_>
          <internalNodes>
            0 -1 163 -1.7088390886783600e-003</internalNodes>
          <leafValues>
            -5.7754683494567871e-001 1.8168894946575165e-001</leafValues></_>
        <_>
          <internalNodes>
            0 -1 8 3.8445528596639633e-002</internalNodes>
          <leafValues>
            -2.2010001540184021e-001 4.0763080120086670e-001</leafValues></_>
        <_>
          <internalNodes>
            0 -1 150 -9.0893581509590149e-003</internalNodes>
          <leafValues>
            4.6145758032798767e-001 -1.8500074744224548e-001</leafValues></_>
        <_>
          <internalNodes>
            0 -1 158 -2.9501160606741905e-003</internalNodes>
          <leafValues>
            -5.8312964439392090e-001 1.4777350425720215e-001</leafValues></_>
        <_>
          <internalNodes>
            0 -1 132 9.5476936548948288e-003</internalNodes>
          <leafValues>
            -2.1629174053668976e-001 4.2543181777000427e-001</leafValues></_>
        <_>
          <internalNodes>
            0 -1 98 6.3095130026340485e-002</internalNodes>
          <leafValues>
            -1.5925198793411255e-001 4.8136755824089050e-001</leafValues></_>
        <_>
          <internalNodes>
            0 -1 36 -1.1724846437573433e-002</internalNodes>
          <leafValues>
            4.4644057750701904e-001 -1.9987870752811432e-001</leafValues></_>
        <_>
          <internalNodes>
            0 -1 22 -1.3971250155009329e-004</internalNodes>
          <leafValues>
            2.6294922828674316e-001 -3.3125486969947815e-001</leafValues></_>
        <_>
          <internalNodes>
            0 -1 25 -3.9666029624640942e-004</internalNodes>
          <leafValues>
            1.3839812576770782e-001 -5.5380368232727051e-001</leafValues></_>
        <_>
          <internalNodes>
            0 -1 78 3.8578957319259644e-002</internalNodes>
          <leafValues>
            1.0426501184701920e-001 -7.1388405561447144e-001</leafValues></_>
        <_>
          <internalNodes>
            0 -1 140 -4.6950455754995346e-002</internalNodes>
          <leafValues>
            7.3400712013244629e-001 -1.1604566127061844e-001</leafValues></_></weakClassifiers></_>
    <!-- stage 11 -->
    <_>
      <maxWeakCount>23</maxWeakCount>
      <stageThreshold>-1.9557985067367554e+000</stageThreshold>
      <weakClassifiers>
        <_>
          <internalNodes>
            0 -1 37 3.3620752394199371e-002</internalNodes>
          <leafValues>
            -6.6173362731933594e-001 1.4537444710731506e-001</leafValues></_>
        <_>
          <internalNodes>
            0 -1 125 7.8827980905771255e-003</internalNodes>
          <leafValues>
            -4.7526711225509644e-001 1.9945809245109558e-001</leafValues></_>
        <_>
          <internalNodes>
            0 -1 74 8.3845090121030807e-003</internalNodes>
          <leafValues>
            -3.5619154572486877e-001 3.3158886432647705e-001</leafValues></_>
        <_>
          <internalNodes>
            0 -1 14 5.0073722377419472e-003</internalNodes>
          <leafValues>
            -5.1600724458694458e-001 1.8091703951358795e-001</leafValues></_>
        <_>
          <internalNodes>
            0 -1 5 1.4204665087163448e-002</internalNodes>
          <leafValues>
            -5.9154629707336426e-001 1.4612722396850586e-001</leafValues></_>
        <_>
          <internalNodes>
            0 -1 60 2.2688767313957214e-001</internalNodes>
          <leafValues>
            1.1853084713220596e-001 -8.1541681289672852e-001</leafValues></_>
        <_>
          <internalNodes>
            0 -1 42 -2.4946924299001694e-002</internalNodes>
          <leafValues>
            5.5222988128662109e-001 -1.8269349634647369e-001</leafValues></_>
        <_>
          <internalNodes>
            0 -1 147 3.0931955203413963e-002</internalNodes>
          <leafValues>
            -1.1650341004133224e-001 5.4574662446975708e-001</leafValues></_>
        <_>
          <internalNodes>
            0 -1 54 1.0788614861667156e-002</internalNodes>
          <leafValues>
            1.3522367179393768e-001 -5.6986677646636963e-001</leafValues></_>
        <_>
          <internalNodes>
            0 -1 47 -1.4751928858458996e-002</internalNodes>
          <leafValues>
            3.9748367667198181e-001 -2.0580761134624481e-001</leafValues></_>
        <_>
          <internalNodes>
            0 -1 51 2.9303459450602531e-002</internalNodes>
          <leafValues>
            -5.3129059076309204e-001 1.5477974712848663e-001</leafValues></_>
        <_>
          <internalNodes>
            0 -1 20 1.1285535991191864e-002</internalNodes>
          <leafValues>
            1.1607956886291504e-001 -5.8140951395034790e-001</leafValues></_>
        <_>
          <internalNodes>
            0 -1 48 7.9573206603527069e-003</internalNodes>
          <leafValues>
            -1.9105847179889679e-001 4.0746986865997314e-001</leafValues></_>
        <_>
          <internalNodes>
            0 -1 62 -2.6436052285134792e-003</internalNodes>
          <leafValues>
            2.2541396319866180e-001 -3.1178918480873108e-001</leafValues></_>
        <_>
          <internalNodes>
            0 -1 161 3.4313771175220609e-004</internalNodes>
          <leafValues>
            -3.5692974925041199e-001 1.9896759092807770e-001</leafValues></_>
        <_>
          <internalNodes>
            0 -1 108 -5.8695793151855469e-002</internalNodes>
          <leafValues>
            5.4024916887283325e-001 -1.4474594593048096e-001</leafValues></_>
        <_>
          <internalNodes>
            0 -1 110 -5.8497752994298935e-002</internalNodes>
          <leafValues>
            2.6674842834472656e-001 -2.7636900544166565e-001</leafValues></_>
        <_>
          <internalNodes>
            0 -1 1 -3.0916030518710613e-003</internalNodes>
          <leafValues>
            -5.6268393993377686e-001 1.2037073075771332e-001</leafValues></_>
        <_>
          <internalNodes>
            0 -1 129 -3.6023199558258057e-002</internalNodes>
          <leafValues>
            3.3528593182563782e-001 -1.9063210487365723e-001</leafValues></_>
        <_>
          <internalNodes>
            0 -1 111 2.2844836115837097e-002</internalNodes>
          <leafValues>
            -1.3262850046157837e-001 5.2977615594863892e-001</leafValues></_>
        <_>
          <internalNodes>
            0 -1 116 -1.5252933837473392e-002</internalNodes>
          <leafValues>
            3.3335775136947632e-001 -1.9661234319210052e-001</leafValues></_>
        <_>
          <internalNodes>
            0 -1 94 1.7320571932941675e-003</internalNodes>
          <leafValues>
            1.4069817960262299e-001 -4.4563221931457520e-001</leafValues></_>
        <_>
          <internalNodes>
            0 -1 68 -3.3476151525974274e-002</internalNodes>
          <leafValues>
            -7.1013259887695313e-001 7.9961054027080536e-002</leafValues></_></weakClassifiers></_>
    <!-- stage 12 -->
    <_>
      <maxWeakCount>23</maxWeakCount>
      <stageThreshold>-1.9381031990051270e+000</stageThreshold>
      <weakClassifiers>
        <_>
          <internalNodes>
            0 -1 86 -1.3527889735996723e-002</internalNodes>
          <leafValues>
            1.4618644118309021e-001 -6.6750532388687134e-001</leafValues></_>
        <_>
          <internalNodes>
            0 -1 52 6.7756231874227524e-003</internalNodes>
          <leafValues>
            -4.3720141053199768e-001 2.3798833787441254e-001</leafValues></_>
        <_>
          <internalNodes>
            0 -1 28 -3.1658217310905457e-002</internalNodes>
          <leafValues>
            1.6021396219730377e-001 -6.4267408847808838e-001</leafValues></_>
        <_>
          <internalNodes>
            0 -1 72 1.0203851386904716e-002</internalNodes>
          <leafValues>
            -5.2366089820861816e-001 1.9111835956573486e-001</leafValues></_>
        <_>
          <internalNodes>
            0 -1 101 1.3672792119905353e-003</internalNodes>
          <leafValues>
            -2.8415131568908691e-001 2.9728934168815613e-001</leafValues></_>
        <_>
          <internalNodes>
            0 -1 127 -1.6438215970993042e-004</internalNodes>
          <leafValues>
            2.5649055838584900e-001 -3.0090522766113281e-001</leafValues></_>
        <_>
          <internalNodes>
            0 -1 153 -5.4180030710995197e-003</internalNodes>
          <leafValues>
            4.3503871560096741e-001 -1.7337208986282349e-001</leafValues></_>
        <_>
          <internalNodes>
            0 -1 0 9.1169361257925630e-004</internalNodes>
          <leafValues>
            -3.2277595996856689e-001 2.3473748564720154e-001</leafValues></_>
        <_>
          <internalNodes>
            0 -1 136 1.7436388880014420e-002</internalNodes>
          <leafValues>
            -1.7034080624580383e-001 4.5261880755424500e-001</leafValues></_>
        <_>
          <internalNodes>
            0 -1 95 3.6152258515357971e-002</internalNodes>
          <leafValues>
            -1.4565570652484894e-001 4.9137401580810547e-001</leafValues></_>
        <_>
          <internalNodes>
            0 -1 13 -2.1237102337181568e-003</internalNodes>
          <leafValues>
            -6.1313986778259277e-001 1.3752648234367371e-001</leafValues></_>
        <_>
          <internalNodes>
            0 -1 155 -5.0061710178852081e-002</internalNodes>
          <leafValues>
            5.2495735883712769e-001 -1.5638725459575653e-001</leafValues></_>
        <_>
          <internalNodes>
            0 -1 109 2.8330003842711449e-003</internalNodes>
          <leafValues>
            -2.4360765516757965e-001 3.0181646347045898e-001</leafValues></_>
        <_>
          <internalNodes>
            0 -1 114 6.0817208141088486e-003</internalNodes>
          <leafValues>
            -2.9722550511360168e-001 2.6096135377883911e-001</leafValues></_>
        <_>
          <internalNodes>
            0 -1 70 6.6079109907150269e-002</internalNodes>
          <leafValues>
            -4.8685163259506226e-001 1.4064180850982666e-001</leafValues></_>
        <_>
          <internalNodes>
            0 -1 106 -6.5587408840656281e-002</internalNodes>
          <leafValues>
            -7.6685768365859985e-001 9.8036646842956543e-002</leafValues></_>
        <_>
          <internalNodes>
            0 -1 23 3.4720017574727535e-003</internalNodes>
          <leafValues>
            -2.2104053199291229e-001 3.3079877495765686e-001</leafValues></_>
        <_>
          <internalNodes>
            0 -1 2 -2.4010060355067253e-002</internalNodes>
          <leafValues>
            4.1499441862106323e-001 -1.5839841961860657e-001</leafValues></_>
        <_>
          <internalNodes>
            0 -1 131 3.5884594544768333e-003</internalNodes>
          <leafValues>
            -1.8585291504859924e-001 3.4862846136093140e-001</leafValues></_>
        <_>
          <internalNodes>
            0 -1 126 -9.7616221755743027e-003</internalNodes>
          <leafValues>
            3.8779672980308533e-001 -1.6343596577644348e-001</leafValues></_>
        <_>
          <internalNodes>
            0 -1 164 -2.4209590628743172e-003</internalNodes>
          <leafValues>
            -5.7177704572677612e-001 1.3237515091896057e-001</leafValues></_>
        <_>
          <internalNodes>
            0 -1 144 -5.3911227732896805e-003</internalNodes>
          <leafValues>
            3.6714980006217957e-001 -1.8286544084548950e-001</leafValues></_>
        <_>
          <internalNodes>
            0 -1 55 4.4793020933866501e-003</internalNodes>
          <leafValues>
            -1.9103503227233887e-001 3.2447931170463562e-001</leafValues></_></weakClassifiers></_></stages>
  <features>
    <_>
      <rects>
        <_>
          0 0 1 2 -1.</_>
        <_>
          0 1 1 1 2.</_></rects>
      <tilted>0</tilted></_>
    <_>
      <rects>
        <_>
          0 0 3 1 -1.</_>
        <_>
          1 0 1 1 3.</_></rects>
      <tilted>0</tilted></_>
    <_>
      <rects>
        <_>
          0 0 2 13 -1.</_>
        <_>
          1 0 1 13 2.</_></rects>
      <tilted>0</tilted></_>
    <_>
      <rects>
        <_>
          0 0 6 2 -1.</_>
        <_>
          0 0 3 1 2.</_>
        <_>
          3 1 3 1 2.</_></rects>
      <tilted>0</tilted></_>
    <_>
      <rects>
        <_>
          0 0 3 9 -1.</_>
        <_>
          0 3 3 3 3.</_></rects>
      <tilted>0</tilted></_>
    <_>
      <rects>
        <_>
          0 0 6 12 -1.</_>
        <_>
          0 4 6 4 3.</_></rects>
      <tilted>0</tilted></_>
    <_>
      <rects>
        <_>
          0 0 10 2 -1.</_>
        <_>
          0 1 10 1 2.</_></rects>
      <tilted>0</tilted></_>
    <_>
      <rects>
        <_>
          0 0 11 12 -1.</_>
        <_>
          0 4 11 4 3.</_></rects>
      <tilted>0</tilted></_>
    <_>
      <rects>
        <_>
          0 0 17 2 -1.</_>
        <_>
          0 1 17 1 2.</_></rects>
      <tilted>0</tilted></_>
    <_>
      <rects>
        <_>
          0 0 19 12 -1.</_>
        <_>
          0 4 19 4 3.</_></rects>
      <tilted>0</tilted></_>
    <_>
      <rects>
        <_>
          0 1 4 12 -1.</_>
        <_>
          2 1 2 12 2.</_></rects>
      <tilted>0</tilted></_>
    <_>
      <rects>
        <_>
          0 1 6 3 -1.</_>
        <_>
          3 1 3 3 2.</_></rects>
      <tilted>0</tilted></_>
    <_>
      <rects>
        <_>
          0 2 8 4 -1.</_>
        <_>
          4 2 4 4 2.</_></rects>
      <tilted>0</tilted></_>
    <_>
      <rects>
        <_>
          0 3 1 3 -1.</_>
        <_>
          0 4 1 1 3.</_></rects>
      <tilted>0</tilted></_>
    <_>
      <rects>
        <_>
          0 3 12 4 -1.</_>
        <_>
          0 3 6 2 2.</_>
        <_>
          6 5 6 2 2.</_></rects>
      <tilted>0</tilted></_>
    <_>
      <rects>
        <_>
          0 3 19 2 -1.</_>
        <_>
          0 4 19 1 2.</_></rects>
      <tilted>0</tilted></_>
    <_>
      <rects>
        <_>
          0 4 1 3 -1.</_>
        <_>
          0 5 1 1 3.</_></rects>
      <tilted>0</tilted></_>
    <_>
      <rects>
        <_>
          0 4 15 6 -1.</_>
        <_>
          0 6 15 2 3.</_></rects>
      <tilted>0</tilted></_>
    <_>
      <rects>
        <_>
          0 5 4 6 -1.</_>
        <_>
          2 5 2 6 2.</_></rects>
      <tilted>0</tilted></_>
    <_>
      <rects>
        <_>
          0 5 6 1 -1.</_>
        <_>
          3 5 3 1 2.</_></rects>
      <tilted>0</tilted></_>
    <_>
      <rects>
        <_>
          0 6 12 2 -1.</_>
        <_>
          4 6 4 2 3.</_></rects>
      <tilted>0</tilted></_>
    <_>
      <rects>
        <_>
          0 7 3 7 -1.</_>
        <_>
          1 7 1 7 3.</_></rects>
      <tilted>0</tilted></_>
    <_>
      <rects>
        <_>
          0 12 1 2 -1.</_>
        <_>
          0 13 1 1 2.</_></rects>
      <tilted>0</tilted></_>
    <_>
      <rects>
        <_>
          0 12 3 1 -1.</_>
        <_>
          1 12 1 1 3.</_></rects>
      <tilted>0</tilted></_>
    <_>
      <rects>
        <_>
          0 12 15 2 -1.</_>
        <_>
          5 12 5 2 3.</_></rects>
      <tilted>0</tilted></_>
    <_>
      <rects>
        <_>
          1 0 9 3 -1.</_>
        <_>
          4 0 3 3 3.</_></rects>
      <tilted>0</tilted></_>
    <_>
      <rects>
        <_>
          1 0 9 7 -1.</_>
        <_>
          4 0 3 7 3.</_></rects>
      <tilted>0</tilted></_>
    <_>
      <rects>
        <_>
          1 0 18 4 -1.</_>
        <_>
          1 2 18 2 2.</_></rects>
      <tilted>0</tilted></_>
    <_>
      <rects>
        <_>
          1 1 9 6 -1.</_>
        <_>
          4 1 3 6 3.</_></rects>
      <tilted>0</tilted></_>
    <_>
      <rects>
        <_>
          1 4 9 3 -1.</_>
        <_>
          4 4 3 3 3.</_></rects>
      <tilted>0</tilted></_>
    <_>
      <rects>
        <_>
          1 5 17 3 -1.</_>
        <_>
          1 6 17 1 3.</_></rects>
      <tilted>0</tilted></_>
    <_>
      <rects>
        <_>
          1 7 3 6 -1.</_>
        <_>
          2 7 1 6 3.</_></rects>
      <tilted>0</tilted></_>
    <_>
      <rects>
        <_>
          1 7 16 3 -1.</_>
        <_>
          1 8 16 1 3.</_></rects>
      <tilted>0</tilted></_>
    <_>
      <rects>
        <_>
          1 8 3 5 -1.</_>
        <_>
          2 8 1 5 3.</_></rects>
      <tilted>0</tilted></_>
    <_>
      <rects>
        <_>
          1 12 17 2 -1.</_>
        <_>
          1 13 17 1 2.</_></rects>
      <tilted>0</tilted></_>
    <_>
      <rects>
        <_>
          2 0 1 4 -1.</_>
        <_>
          2 2 1 2 2.</_></rects>
      <tilted>0</tilted></_>
    <_>
      <rects>
        <_>
          2 0 4 3 -1.</_>
        <_>
          2 1 4 1 3.</_></rects>
      <tilted>0</tilted></_>
    <_>
      <rects>
        <_>
          2 1 2 12 -1.</_>
        <_>
          2 1 1 6 2.</_>
        <_>
          3 7 1 6 2.</_></rects>
      <tilted>0</tilted></_>
    <_>
      <rects>
        <_>
          2 1 13 2 -1.</_>
        <_>
          2 2 13 1 2.</_></rects>
      <tilted>0</tilted></_>
    <_>
      <rects>
        <_>
          2 2 3 7 -1.</_>
        <_>
          3 2 1 7 3.</_></rects>
      <tilted>0</tilted></_>
    <_>
      <rects>
        <_>
          2 6 5 3 -1.</_>
        <_>
          2 7 5 1 3.</_></rects>
      <tilted>0</tilted></_>
    <_>
      <rects>
        <_>
          2 7 10 3 -1.</_>
        <_>
          2 8 10 1 3.</_></rects>
      <tilted>0</tilted></_>
    <_>
      <rects>
        <_>
          2 9 3 4 -1.</_>
        <_>
          3 9 1 4 3.</_></rects>
      <tilted>0</tilted></_>
    <_>
      <rects>
        <_>
          3 6 9 3 -1.</_>
        <_>
          6 6 3 3 3.</_></rects>
      <tilted>0</tilted></_>
    <_>
      <rects>
        <_>
          3 6 4 3 -1.</_>
        <_>
          3 7 4 1 3.</_></rects>
      <tilted>0</tilted></_>
    <_>
      <rects>
        <_>
          3 6 5 3 -1.</_>
        <_>
          3 7 5 1 3.</_></rects>
      <tilted>0</tilted></_>
    <_>
      <rects>
        <_>
          3 6 7 6 -1.</_>
        <_>
          3 8 7 2 3.</_></rects>
      <tilted>0</tilted></_>
    <_>
      <rects>
        <_>
          3 9 3 4 -1.</_>
        <_>
          4 9 1 4 3.</_></rects>
      <tilted>0</tilted></_>
    <_>
      <rects>
        <_>
          3 10 3 2 -1.</_>
        <_>
          4 10 1 2 3.</_></rects>
      <tilted>0</tilted></_>
    <_>
      <rects>
        <_>
          4 0 3 3 -1.</_>
        <_>
          4 1 3 1 3.</_></rects>
      <tilted>0</tilted></_>
    <_>
      <rects>
        <_>
          4 0 15 12 -1.</_>
        <_>
          4 4 15 4 3.</_></rects>
      <tilted>0</tilted></_>
    <_>
      <rects>
        <_>
          4 2 9 12 -1.</_>
        <_>
          4 6 9 4 3.</_></rects>
      <tilted>0</tilted></_>
    <_>
      <rects>
        <_>
          4 3 6 2 -1.</_>
        <_>
          4 4 6 1 2.</_></rects>
      <tilted>0</tilted></_>
    <_>
      <rects>
        <_>
          4 4 12 6 -1.</_>
        <_>
          4 6 12 2 3.</_></rects>
      <tilted>0</tilted></_>
    <_>
      <rects>
        <_>
          4 7 6 2 -1.</_>
        <_>
          7 7 3 2 2.</_></rects>
      <tilted>0</tilted></_>
    <_>
      <rects>
        <_>
          4 8 3 1 -1.</_>
        <_>
          5 8 1 1 3.</_></rects>
      <tilted>0</tilted></_>
    <_>
      <rects>
        <_>
          4 8 3 4 -1.</_>
        <_>
          5 8 1 4 3.</_></rects>
      <tilted>0</tilted></_>
    <_>
      <rects>
        <_>
          4 8 3 5 -1.</_>
        <_>
          5 8 1 5 3.</_></rects>
      <tilted>0</tilted></_>
    <_>
      <rects>
        <_>
          5 1 3 6 -1.</_>
        <_>
          6 1 1 6 3.</_></rects>
      <tilted>0</tilted></_>
    <_>
      <rects>
        <_>
          5 3 2 3 -1.</_>
        <_>
          6 3 1 3 2.</_></rects>
      <tilted>0</tilted></_>
    <_>
      <rects>
        <_>
          5 3 14 9 -1.</_>
        <_>
          5 6 14 3 3.</_></rects>
      <tilted>0</tilted></_>
    <_>
      <rects>
        <_>
          5 4 2 1 -1.</_>
        <_>
          6 4 1 1 2.</_></rects>
      <tilted>0</tilted></_>
    <_>
      <rects>
        <_>
          5 7 3 3 -1.</_>
        <_>
          5 8 3 1 3.</_></rects>
      <tilted>0</tilted></_>
    <_>
      <rects>
        <_>
          5 9 3 4 -1.</_>
        <_>
          6 9 1 4 3.</_></rects>
      <tilted>0</tilted></_>
    <_>
      <rects>
        <_>
          5 11 13 3 -1.</_>
        <_>
          5 12 13 1 3.</_></rects>
      <tilted>0</tilted></_>
    <_>
      <rects>
        <_>
          5 12 12 2 -1.</_>
        <_>
          9 12 4 2 3.</_></rects>
      <tilted>0</tilted></_>
    <_>
      <rects>
        <_>
          6 1 2 12 -1.</_>
        <_>
          6 1 1 6 2.</_>
        <_>
          7 7 1 6 2.</_></rects>
      <tilted>0</tilted></_>
    <_>
      <rects>
        <_>
          6 1 6 6 -1.</_>
        <_>
          8 1 2 6 3.</_></rects>
      <tilted>0</tilted></_>
    <_>
      <rects>
        <_>
          6 1 3 6 -1.</_>
        <_>
          6 3 3 2 3.</_></rects>
      <tilted>0</tilted></_>
    <_>
      <rects>
        <_>
          6 2 6 1 -1.</_>
        <_>
          8 2 2 1 3.</_></rects>
      <tilted>0</tilted></_>
    <_>
      <rects>
        <_>
          6 2 13 9 -1.</_>
        <_>
          6 5 13 3 3.</_></rects>
      <tilted>0</tilted></_>
    <_>
      <rects>
        <_>
          6 4 8 4 -1.</_>
        <_>
          10 4 4 4 2.</_></rects>
      <tilted>0</tilted></_>
    <_>
      <rects>
        <_>
          6 4 7 4 -1.</_>
        <_>
          6 6 7 2 2.</_></rects>
      <tilted>0</tilted></_>
    <_>
      <rects>
        <_>
          6 4 8 6 -1.</_>
        <_>
          6 6 8 2 3.</_></rects>
      <tilted>0</tilted></_>
    <_>
      <rects>
        <_>
          6 5 4 1 -1.</_>
        <_>
          8 5 2 1 2.</_></rects>
      <tilted>0</tilted></_>
    <_>
      <rects>
        <_>
          6 6 1 2 -1.</_>
        <_>
          6 7 1 1 2.</_></rects>
      <tilted>0</tilted></_>
    <_>
      <rects>
        <_>
          6 6 2 2 -1.</_>
        <_>
          6 6 1 1 2.</_>
        <_>
          7 7 1 1 2.</_></rects>
      <tilted>0</tilted></_>
    <_>
      <rects>
        <_>
          6 6 4 2 -1.</_>
        <_>
          6 6 2 1 2.</_>
        <_>
          8 7 2 1 2.</_></rects>
      <tilted>0</tilted></_>
    <_>
      <rects>
        <_>
          6 6 12 2 -1.</_>
        <_>
          10 6 4 2 3.</_></rects>
      <tilted>0</tilted></_>
    <_>
      <rects>
        <_>
          6 7 6 6 -1.</_>
        <_>
          8 7 2 6 3.</_></rects>
      <tilted>0</tilted></_>
    <_>
      <rects>
        <_>
          6 7 3 3 -1.</_>
        <_>
          6 8 3 1 3.</_></rects>
      <tilted>0</tilted></_>
    <_>
      <rects>
        <_>
          6 8 3 4 -1.</_>
        <_>
          7 8 1 4 3.</_></rects>
      <tilted>0</tilted></_>
    <_>
      <rects>
        <_>
          6 8 3 5 -1.</_>
        <_>
          7 8 1 5 3.</_></rects>
      <tilted>0</tilted></_>
    <_>
      <rects>
        <_>
          7 1 2 12 -1.</_>
        <_>
          7 1 1 6 2.</_>
        <_>
          8 7 1 6 2.</_></rects>
      <tilted>0</tilted></_>
    <_>
      <rects>
        <_>
          7 2 3 4 -1.</_>
        <_>
          8 2 1 4 3.</_></rects>
      <tilted>0</tilted></_>
    <_>
      <rects>
        <_>
          7 3 5 4 -1.</_>
        <_>
          7 5 5 2 2.</_></rects>
      <tilted>0</tilted></_>
    <_>
      <rects>
        <_>
          7 5 2 4 -1.</_>
        <_>
          7 5 1 2 2.</_>
        <_>
          8 7 1 2 2.</_></rects>
      <tilted>0</tilted></_>
    <_>
      <rects>
        <_>
          7 5 5 2 -1.</_>
        <_>
          7 6 5 1 2.</_></rects>
      <tilted>0</tilted></_>
    <_>
      <rects>
        <_>
          7 7 3 7 -1.</_>
        <_>
          8 7 1 7 3.</_></rects>
      <tilted>0</tilted></_>
    <_>
      <rects>
        <_>
          7 8 3 5 -1.</_>
        <_>
          8 8 1 5 3.</_></rects>
      <tilted>0</tilted></_>
    <_>
      <rects>
        <_>
          7 8 8 3 -1.</_>
        <_>
          7 9 8 1 3.</_></rects>
      <tilted>0</tilted></_>
    <_>
      <rects>
        <_>
          8 0 2 1 -1.</_>
        <_>
          9 0 1 1 2.</_></rects>
      <tilted>0</tilted></_>
    <_>
      <rects>
        <_>
          8 1 3 9 -1.</_>
        <_>
          8 4 3 3 3.</_></rects>
      <tilted>0</tilted></_>
    <_>
      <rects>
        <_>
          8 3 3 4 -1.</_>
        <_>
          8 5 3 2 2.</_></rects>
      <tilted>0</tilted></_>
    <_>
      <rects>
        <_>
          8 6 2 1 -1.</_>
        <_>
          9 6 1 1 2.</_></rects>
      <tilted>0</tilted></_>
    <_>
      <rects>
        <_>
          8 7 3 6 -1.</_>
        <_>
          9 7 1 6 3.</_></rects>
      <tilted>0</tilted></_>
    <_>
      <rects>
        <_>
          8 7 6 4 -1.</_>
        <_>
          10 7 2 4 3.</_></rects>
      <tilted>0</tilted></_>
    <_>
      <rects>
        <_>
          8 8 3 5 -1.</_>
        <_>
          9 8 1 5 3.</_></rects>
      <tilted>0</tilted></_>
    <_>
      <rects>
        <_>
          8 8 6 4 -1.</_>
        <_>
          10 8 2 4 3.</_></rects>
      <tilted>0</tilted></_>
    <_>
      <rects>
        <_>
          9 0 10 12 -1.</_>
        <_>
          9 4 10 4 3.</_></rects>
      <tilted>0</tilted></_>
    <_>
      <rects>
        <_>
          9 1 1 3 -1.</_>
        <_>
          9 2 1 1 3.</_></rects>
      <tilted>0</tilted></_>
    <_>
      <rects>
        <_>
          9 2 2 2 -1.</_>
        <_>
          9 2 1 1 2.</_>
        <_>
          10 3 1 1 2.</_></rects>
      <tilted>0</tilted></_>
    <_>
      <rects>
        <_>
          9 2 3 4 -1.</_>
        <_>
          10 2 1 4 3.</_></rects>
      <tilted>0</tilted></_>
    <_>
      <rects>
        <_>
          9 2 6 5 -1.</_>
        <_>
          11 2 2 5 3.</_></rects>
      <tilted>0</tilted></_>
    <_>
      <rects>
        <_>
          9 3 3 1 -1.</_>
        <_>
          10 3 1 1 3.</_></rects>
      <tilted>0</tilted></_>
    <_>
      <rects>
        <_>
          9 5 1 2 -1.</_>
        <_>
          9 6 1 1 2.</_></rects>
      <tilted>0</tilted></_>
    <_>
      <rects>
        <_>
          9 6 7 6 -1.</_>
        <_>
          9 8 7 2 3.</_></rects>
      <tilted>0</tilted></_>
    <_>
      <rects>
        <_>
          9 8 3 5 -1.</_>
        <_>
          10 8 1 5 3.</_></rects>
      <tilted>0</tilted></_>
    <_>
      <rects>
        <_>
          9 8 6 4 -1.</_>
        <_>
          11 8 2 4 3.</_></rects>
      <tilted>0</tilted></_>
    <_>
      <rects>
        <_>
          9 10 3 1 -1.</_>
        <_>
          10 10 1 1 3.</_></rects>
      <tilted>0</tilted></_>
    <_>
      <rects>
        <_>
          10 0 8 14 -1.</_>
        <_>
          10 0 4 7 2.</_>
        <_>
          14 7 4 7 2.</_></rects>
      <tilted>0</tilted></_>
    <_>
      <rects>
        <_>
          10 1 3 4 -1.</_>
        <_>
          11 1 1 4 3.</_></rects>
      <tilted>0</tilted></_>
    <_>
      <rects>
        <_>
          10 1 2 5 -1.</_>
        <_>
          11 1 1 5 2.</_></rects>
      <tilted>0</tilted></_>
    <_>
      <rects>
        <_>
          10 1 3 5 -1.</_>
        <_>
          11 1 1 5 3.</_></rects>
      <tilted>0</tilted></_>
    <_>
      <rects>
        <_>
          10 1 9 2 -1.</_>
        <_>
          10 2 9 1 2.</_></rects>
      <tilted>0</tilted></_>
    <_>
      <rects>
        <_>
          10 2 3 3 -1.</_>
        <_>
          11 2 1 3 3.</_></rects>
      <tilted>0</tilted></_>
    <_>
      <rects>
        <_>
          10 2 2 4 -1.</_>
        <_>
          11 2 1 4 2.</_></rects>
      <tilted>0</tilted></_>
    <_>
      <rects>
        <_>
          10 2 3 4 -1.</_>
        <_>
          11 2 1 4 3.</_></rects>
      <tilted>0</tilted></_>
    <_>
      <rects>
        <_>
          10 2 2 5 -1.</_>
        <_>
          11 2 1 5 2.</_></rects>
      <tilted>0</tilted></_>
    <_>
      <rects>
        <_>
          10 8 3 4 -1.</_>
        <_>
          11 8 1 4 3.</_></rects>
      <tilted>0</tilted></_>
    <_>
      <rects>
        <_>
          11 0 8 6 -1.</_>
        <_>
          15 0 4 6 2.</_></rects>
      <tilted>0</tilted></_>
    <_>
      <rects>
        <_>
          11 1 3 4 -1.</_>
        <_>
          12 1 1 4 3.</_></rects>
      <tilted>0</tilted></_>
    <_>
      <rects>
        <_>
          11 1 3 5 -1.</_>
        <_>
          12 1 1 5 3.</_></rects>
      <tilted>0</tilted></_>
    <_>
      <rects>
        <_>
          11 5 1 9 -1.</_>
        <_>
          11 8 1 3 3.</_></rects>
      <tilted>0</tilted></_>
    <_>
      <rects>
        <_>
          11 5 2 2 -1.</_>
        <_>
          11 6 2 1 2.</_></rects>
      <tilted>0</tilted></_>
    <_>
      <rects>
        <_>
          11 5 5 2 -1.</_>
        <_>
          11 6 5 1 2.</_></rects>
      <tilted>0</tilted></_>
    <_>
      <rects>
        <_>
          11 6 6 3 -1.</_>
        <_>
          11 7 6 1 3.</_></rects>
      <tilted>0</tilted></_>
    <_>
      <rects>
        <_>
          11 11 1 2 -1.</_>
        <_>
          11 12 1 1 2.</_></rects>
      <tilted>0</tilted></_>
    <_>
      <rects>
        <_>
          11 12 1 2 -1.</_>
        <_>
          11 13 1 1 2.</_></rects>
      <tilted>0</tilted></_>
    <_>
      <rects>
        <_>
          12 1 6 4 -1.</_>
        <_>
          14 1 2 4 3.</_></rects>
      <tilted>0</tilted></_>
    <_>
      <rects>
        <_>
          12 3 2 8 -1.</_>
        <_>
          12 3 1 4 2.</_>
        <_>
          13 7 1 4 2.</_></rects>
      <tilted>0</tilted></_>
    <_>
      <rects>
        <_>
          12 6 1 3 -1.</_>
        <_>
          12 7 1 1 3.</_></rects>
      <tilted>0</tilted></_>
    <_>
      <rects>
        <_>
          12 8 3 2 -1.</_>
        <_>
          13 8 1 2 3.</_></rects>
      <tilted>0</tilted></_>
    <_>
      <rects>
        <_>
          12 8 3 5 -1.</_>
        <_>
          13 8 1 5 3.</_></rects>
      <tilted>0</tilted></_>
    <_>
      <rects>
        <_>
          12 9 3 4 -1.</_>
        <_>
          13 9 1 4 3.</_></rects>
      <tilted>0</tilted></_>
    <_>
      <rects>
        <_>
          12 12 6 2 -1.</_>
        <_>
          12 13 6 1 2.</_></rects>
      <tilted>0</tilted></_>
    <_>
      <rects>
        <_>
          13 1 3 3 -1.</_>
        <_>
          14 1 1 3 3.</_></rects>
      <tilted>0</tilted></_>
    <_>
      <rects>
        <_>
          13 2 3 4 -1.</_>
        <_>
          14 2 1 4 3.</_></rects>
      <tilted>0</tilted></_>
    <_>
      <rects>
        <_>
          13 2 6 6 -1.</_>
        <_>
          15 2 2 6 3.</_></rects>
      <tilted>0</tilted></_>
    <_>
      <rects>
        <_>
          13 5 4 3 -1.</_>
        <_>
          13 6 4 1 3.</_></rects>
      <tilted>0</tilted></_>
    <_>
      <rects>
        <_>
          13 12 6 2 -1.</_>
        <_>
          13 13 6 1 2.</_></rects>
      <tilted>0</tilted></_>
    <_>
      <rects>
        <_>
          14 0 3 11 -1.</_>
        <_>
          15 0 1 11 3.</_></rects>
      <tilted>0</tilted></_>
    <_>
      <rects>
        <_>
          14 0 4 6 -1.</_>
        <_>
          16 0 2 6 2.</_></rects>
      <tilted>0</tilted></_>
    <_>
      <rects>
        <_>
          14 1 3 12 -1.</_>
        <_>
          15 1 1 12 3.</_></rects>
      <tilted>0</tilted></_>
    <_>
      <rects>
        <_>
          14 6 4 2 -1.</_>
        <_>
          14 6 2 1 2.</_>
        <_>
          16 7 2 1 2.</_></rects>
      <tilted>0</tilted></_>
    <_>
      <rects>
        <_>
          14 7 3 6 -1.</_>
        <_>
          15 7 1 6 3.</_></rects>
      <tilted>0</tilted></_>
    <_>
      <rects>
        <_>
          14 9 3 2 -1.</_>
        <_>
          15 9 1 2 3.</_></rects>
      <tilted>0</tilted></_>
    <_>
      <rects>
        <_>
          14 9 3 4 -1.</_>
        <_>
          15 9 1 4 3.</_></rects>
      <tilted>0</tilted></_>
    <_>
      <rects>
        <_>
          15 1 2 12 -1.</_>
        <_>
          15 1 1 6 2.</_>
        <_>
          16 7 1 6 2.</_></rects>
      <tilted>0</tilted></_>
    <_>
      <rects>
        <_>
          15 6 3 7 -1.</_>
        <_>
          16 6 1 7 3.</_></rects>
      <tilted>0</tilted></_>
    <_>
      <rects>
        <_>
          15 7 2 3 -1.</_>
        <_>
          16 7 1 3 2.</_></rects>
      <tilted>0</tilted></_>
    <_>
      <rects>
        <_>
          15 7 3 7 -1.</_>
        <_>
          16 7 1 7 3.</_></rects>
      <tilted>0</tilted></_>
    <_>
      <rects>
        <_>
          15 10 3 2 -1.</_>
        <_>
          16 10 1 2 3.</_></rects>
      <tilted>0</tilted></_>
    <_>
      <rects>
        <_>
          15 12 4 2 -1.</_>
        <_>
          15 12 2 1 2.</_>
        <_>
          17 13 2 1 2.</_></rects>
      <tilted>0</tilted></_>
    <_>
      <rects>
        <_>
          16 0 3 7 -1.</_>
        <_>
          17 0 1 7 3.</_></rects>
      <tilted>0</tilted></_>
    <_>
      <rects>
        <_>
          17 0 1 14 -1.</_>
        <_>
          17 7 1 7 2.</_></rects>
      <tilted>0</tilted></_>
    <_>
      <rects>
        <_>
          17 0 2 2 -1.</_>
        <_>
          17 1 2 1 2.</_></rects>
      <tilted>0</tilted></_>
    <_>
      <rects>
        <_>
          17 1 2 12 -1.</_>
        <_>
          17 1 1 6 2.</_>
        <_>
          18 7 1 6 2.</_></rects>
      <tilted>0</tilted></_>
    <_>
      <rects>
        <_>
          17 2 2 3 -1.</_>
        <_>
          17 3 2 1 3.</_></rects>
      <tilted>0</tilted></_>
    <_>
      <rects>
        <_>
          17 3 2 3 -1.</_>
        <_>
          17 4 2 1 3.</_></rects>
      <tilted>0</tilted></_>
    <_>
      <rects>
        <_>
          17 4 2 2 -1.</_>
        <_>
          17 5 2 1 2.</_></rects>
      <tilted>0</tilted></_>
    <_>
      <rects>
        <_>
          18 0 1 2 -1.</_>
        <_>
          18 1 1 1 2.</_></rects>
      <tilted>0</tilted></_>
    <_>
      <rects>
        <_>
          18 0 1 4 -1.</_>
        <_>
          18 2 1 2 2.</_></rects>
      <tilted>0</tilted></_>
    <_>
      <rects>
        <_>
          18 3 1 3 -1.</_>
        <_>
          18 4 1 1 3.</_></rects>
      <tilted>0</tilted></_>
    <_>
      <rects>
        <_>
          18 6 1 3 -1.</_>
        <_>
          18 7 1 1 3.</_></rects>
      <tilted>0</tilted></_>
    <_>
      <rects>
        <_>
          18 12 1 2 -1.</_>
        <_>
          18 13 1 1 2.</_></rects>
      <tilted>0</tilted></_></features></cascade>
</opencv_storage>
