<?xml version="1.0"?>
<opencv_storage>
<cascade>
  <stageType>BOOST</stageType>
  <featureType>LBP</featureType>
  <height>14</height>
  <width>19</width>
  <stageParams>
    <boostType>GAB</boostType>
    <minHitRate>9.9500000476837158e-001</minHitRate>
    <maxFalseAlarm>4.4999998807907104e-001</maxFalseAlarm>
    <weightTrimRate>9.4999999999999996e-001</weightTrimRate>
    <maxDepth>1</maxDepth>
    <maxWeakCount>100</maxWeakCount></stageParams>
  <featureParams>
    <maxCatCount>256</maxCatCount>
    <featSize>1</featSize></featureParams>
  <stageNum>12</stageNum>
  <stages>
    <!-- stage 0 -->
    <_>
      <maxWeakCount>4</maxWeakCount>
      <stageThreshold>-2.0729005336761475e+000</stageThreshold>
      <weakClassifiers>
        <_>
          <internalNodes>
            0 -1 13 1362580991 -9737 -753279521 -539500577 1060895231
            -7631985 -88081921 -1025</internalNodes>
          <leafValues>
            -9.1549891233444214e-001 5.7671958208084106e-001</leafValues></_>
        <_>
          <internalNodes>
            0 -1 46 -774898688 1439683319 -1056853620 -178785281
            -746063033 -7372661 -108265985 -1049601</internalNodes>
          <leafValues>
            -8.8491010665893555e-001 3.8453984260559082e-001</leafValues></_>
        <_>
          <internalNodes>
            0 -1 17 -79626276 -3648112 -786939463 -6700580 -922695428
            -7780200 -350745617 -1081275252</internalNodes>
          <leafValues>
            -7.7421253919601440e-001 5.8095419406890869e-001</leafValues></_>
        <_>
          <internalNodes>
            0 -1 28 42664586 -548153955 -1726758449 1600100559 -73466897
            -83180869 -1444954129 -8442897</internalNodes>
          <leafValues>
            -8.8297468423843384e-001 5.0172096490859985e-001</leafValues></_></weakClassifiers></_>
    <!-- stage 1 -->
    <_>
      <maxWeakCount>4</maxWeakCount>
      <stageThreshold>-1.8224568367004395e+000</stageThreshold>
      <weakClassifiers>
        <_>
          <internalNodes>
            0 -1 3 -137365778 -748990005 1397407974 -2109437 -342101525
            -70549106 -627322129 -6292545</internalNodes>
          <leafValues>
            -9.0602874755859375e-001 4.5656564831733704e-001</leafValues></_>
        <_>
          <internalNodes>
            0 -1 22 -254285310 -204997888 -532545534 1899492103
            -805068598 268746752 -268319846 -210508853</internalNodes>
          <leafValues>
            -8.1767338514328003e-001 5.8478081226348877e-001</leafValues></_>
        <_>
          <internalNodes>
            0 -1 44 -211295734 -788299262 -1071607744 1430358530
            -637287806 1610743808 -257165174 -202378533</internalNodes>
          <leafValues>
            -7.1603566408157349e-001 6.8123674392700195e-001</leafValues></_>
        <_>
          <internalNodes>
            0 -1 36 -35651908 -606549283 -116321828 -2239524 -81200392
            -1701019572 2076818424 -2490403</internalNodes>
          <leafValues>
            -7.2794938087463379e-001 6.1728096008300781e-001</leafValues></_></weakClassifiers></_>
    <!-- stage 2 -->
    <_>
      <maxWeakCount>3</maxWeakCount>
      <stageThreshold>-1.3350037336349487e+000</stageThreshold>
      <weakClassifiers>
        <_>
          <internalNodes>
            0 -1 1 -6426 -543165993 -775441697 -397157 -70517761
            -73744149 -235930629 -1049601</internalNodes>
          <leafValues>
            -9.0413367748260498e-001 3.0915683507919312e-001</leafValues></_>
        <_>
          <internalNodes>
            0 -1 17 -683639312 -2486180 -653983331 -2247207 -1969163543
            -67567400 -284676673 -1079441268</internalNodes>
          <leafValues>
            -8.2464927434921265e-001 4.5729556679725647e-001</leafValues></_>
        <_>
          <internalNodes>
            0 -1 41 -800864766 1342386435 1074039297 1898181127
            1078182146 269714944 -226106725 -210502673</internalNodes>
          <leafValues>
            -8.1951135396957397e-001 5.0815832614898682e-001</leafValues></_></weakClassifiers></_>
    <!-- stage 3 -->
    <_>
      <maxWeakCount>4</maxWeakCount>
      <stageThreshold>-1.8861322402954102e+000</stageThreshold>
      <weakClassifiers>
        <_>
          <internalNodes>
            0 -1 45 -201327866 -2099489 -754714113 -2100769 -108139781
            -561282936 -326370645 -1</internalNodes>
          <leafValues>
            -8.9429455995559692e-001 2.3503127694129944e-001</leafValues></_>
        <_>
          <internalNodes>
            0 -1 8 -67108882 -221060866 -737505270 -253586230 -353385797
            889782434 -498343698 -136318001</internalNodes>
          <leafValues>
            -7.9397487640380859e-001 5.1551502943038940e-001</leafValues></_>
        <_>
          <internalNodes>
            0 -1 23 -805272936 -69402360 -577728011 -42868391 446179755
            -1616278901 597334271 -1111516257</internalNodes>
          <leafValues>
            -7.0434468984603882e-001 5.9341168403625488e-001</leafValues></_>
        <_>
          <internalNodes>
            0 -1 20 268440796 2111131840 289412575 -539639715 -108808001
            -1232596743 965393342 1038942348</internalNodes>
          <leafValues>
            -8.0300801992416382e-001 5.2335995435714722e-001</leafValues></_></weakClassifiers></_>
    <!-- stage 4 -->
    <_>
      <maxWeakCount>5</maxWeakCount>
      <stageThreshold>-1.5160181522369385e+000</stageThreshold>
      <weakClassifiers>
        <_>
          <internalNodes>
            0 -1 53 -49 -140525329 -266348466 -236979589 2030303746
            1570879 -138416574 -134217729</internalNodes>
          <leafValues>
            -8.9342403411865234e-001 1.2916328012943268e-001</leafValues></_>
        <_>
          <internalNodes>
            0 -1 4 -2 -8193 -798173476 -589826 -202518868 -72091509
            -337841172 -1</internalNodes>
          <leafValues>
            -7.8011232614517212e-001 4.2904561758041382e-001</leafValues></_>
        <_>
          <internalNodes>
            0 -1 30 -800339766 1359147522 -1039769598 1936195147
            -468660593 -2142836729 -170673265 -2097153</internalNodes>
          <leafValues>
            -6.6292554140090942e-001 5.3886169195175171e-001</leafValues></_>
        <_>
          <internalNodes>
            0 -1 7 -269488154 -320603473 -433788370 -353443218
            1978915702 1615323891 -18942178 -135004329</internalNodes>
          <leafValues>
            -7.6424509286880493e-001 4.6152040362358093e-001</leafValues></_>
        <_>
          <internalNodes>
            0 -1 40 16755202 2013263871 -1646272705 -517 -1140871265
            -1342440711 -1557 -536892417</internalNodes>
          <leafValues>
            -8.4286385774612427e-001 4.2567762732505798e-001</leafValues></_></weakClassifiers></_>
    <!-- stage 5 -->
    <_>
      <maxWeakCount>5</maxWeakCount>
      <stageThreshold>-1.3902456760406494e+000</stageThreshold>
      <weakClassifiers>
        <_>
          <internalNodes>
            0 -1 54 -2097169 -202380321 -90972576 -134742033 2012214022
            74441323 -407110846 -201326593</internalNodes>
          <leafValues>
            -8.9447796344757080e-001 1.8835616111755371e-001</leafValues></_>
        <_>
          <internalNodes>
            0 -1 0 -352327922 -85991697 -671877249 -6299745 -1278218245
            -74466935 -4194565 -1</internalNodes>
          <leafValues>
            -7.1088761091232300e-001 4.0862342715263367e-001</leafValues></_>
        <_>
          <internalNodes>
            0 -1 38 -791952698 -236987431 1211067 -246285369 -1069304626
            -199099825 -532481041 -222298129</internalNodes>
          <leafValues>
            -6.1922484636306763e-001 5.3955471515655518e-001</leafValues></_>
        <_>
          <internalNodes>
            0 -1 2 1465337482 -140542977 -99492097 -537138241 -543178753
            -283157 2146168317 -34</internalNodes>
          <leafValues>
            -6.8338328599929810e-001 4.7367376089096069e-001</leafValues></_>
        <_>
          <internalNodes>
            0 -1 39 -1081216 1397727355 -1440529664 -6816001 1161970817
            21103419 -424981281 -134217745</internalNodes>
          <leafValues>
            -6.8461716175079346e-001 4.8901873826980591e-001</leafValues></_></weakClassifiers></_>
    <!-- stage 6 -->
    <_>
      <maxWeakCount>5</maxWeakCount>
      <stageThreshold>-1.7002531290054321e+000</stageThreshold>
      <weakClassifiers>
        <_>
          <internalNodes>
            0 -1 27 -458755 -393219 -1082359811 -163841 -5702723
            -67466055 -1523779 -4382952</internalNodes>
          <leafValues>
            -8.7971317768096924e-001 -6.2111802399158478e-003</leafValues></_>
        <_>
          <internalNodes>
            0 -1 52 -209 -2098193 -2108628 -257 -134742249 2002774655
            -253 -134218753</internalNodes>
          <leafValues>
            -7.4734485149383545e-001 3.4419298171997070e-001</leafValues></_>
        <_>
          <internalNodes>
            0 -1 6 -9437202 -1049121 -631314 -16777345 -559274
            -270532869 -143261801 -9</internalNodes>
          <leafValues>
            -7.0309084653854370e-001 4.1393128037452698e-001</leafValues></_>
        <_>
          <internalNodes>
            0 -1 34 -110035100 2145187772 -539492995 2080178175 -4391172
            -101391619 -1052708 -1</internalNodes>
          <leafValues>
            -7.9881620407104492e-001 3.8745456933975220e-001</leafValues></_>
        <_>
          <internalNodes>
            0 -1 19 1363640322 -3149321 -611069481 -19973 -790697253
            -109317990 -153617809 -2098209</internalNodes>
          <leafValues>
            -6.3106083869934082e-001 4.8297756910324097e-001</leafValues></_></weakClassifiers></_>
    <!-- stage 7 -->
    <_>
      <maxWeakCount>5</maxWeakCount>
      <stageThreshold>-1.5928652286529541e+000</stageThreshold>
      <weakClassifiers>
        <_>
          <internalNodes>
            0 -1 42 -67108867 -2631169 -539762691 -140321 -9568515
            -68232211 -131076 -1</internalNodes>
          <leafValues>
            -8.3520764112472534e-001 5.1671732217073441e-002</leafValues></_>
        <_>
          <internalNodes>
            0 -1 12 313537009 -443915 -539492417 -32777 2012183551
            -4460613 -1080033281 -1359948</internalNodes>
          <leafValues>
            -7.2756886482238770e-001 2.7012285590171814e-001</leafValues></_>
        <_>
          <internalNodes>
            0 -1 33 -42926156 -2597123 -1082384395 2147474431 -21512199
            -4653059 -1089462291 -1078386919</internalNodes>
          <leafValues>
            -6.3960331678390503e-001 3.9401161670684814e-001</leafValues></_>
        <_>
          <internalNodes>
            0 -1 15 2071150591 1071969759 -48758785 -4271784 1146110461
            1280400895 1576337407 -196609</internalNodes>
          <leafValues>
            -6.0153704881668091e-001 4.5816299319267273e-001</leafValues></_>
        <_>
          <internalNodes>
            0 -1 48 -71315698 -698490885 1262476554 -1080558593
            -136602069 1995437021 -118882521 -1029</internalNodes>
          <leafValues>
            -7.0944267511367798e-001 4.2418125271797180e-001</leafValues></_></weakClassifiers></_>
    <!-- stage 8 -->
    <_>
      <maxWeakCount>5</maxWeakCount>
      <stageThreshold>-1.4584351778030396e+000</stageThreshold>
      <weakClassifiers>
        <_>
          <internalNodes>
            0 -1 49 -134217745 -797443121 -170669409 -250351090
            -112734514 -1073424064 -623641857 -70779665</internalNodes>
          <leafValues>
            -8.2482701539993286e-001 3.0395137146115303e-003</leafValues></_>
        <_>
          <internalNodes>
            0 -1 32 -2 -198685 -302223364 -103486530 -2492436
            -1884509323 -4329476 -1180673</internalNodes>
          <leafValues>
            -6.8435502052307129e-001 3.3253383636474609e-001</leafValues></_>
        <_>
          <internalNodes>
            0 -1 5 -268439962 -286269442 2122640526 1851771718
            -410530817 2141170888 -71373545 -1048577</internalNodes>
          <leafValues>
            -7.2792673110961914e-001 3.3287921547889709e-001</leafValues></_>
        <_>
          <internalNodes>
            0 -1 21 488181008 -67125289 -1625571393 -33685537
            -1078444036 -2499607 533478319 -1109449827</internalNodes>
          <leafValues>
            -6.5969854593276978e-001 3.7037122249603271e-001</leafValues></_>
        <_>
          <internalNodes>
            0 -1 26 -76550650 2076414786 542556486 -146540637 -529598225
            -229908410 -263782433 1895298894</internalNodes>
          <leafValues>
            -6.0858649015426636e-001 4.4315588474273682e-001</leafValues></_></weakClassifiers></_>
    <!-- stage 9 -->
    <_>
      <maxWeakCount>7</maxWeakCount>
      <stageThreshold>-1.6265577077865601e+000</stageThreshold>
      <weakClassifiers>
        <_>
          <internalNodes>
            0 -1 49 -1 -243795121 -168559713 -244057458 -3147058
            -1052378556 -71827713 -69730865</internalNodes>
          <leafValues>
            -7.9752576351165771e-001 7.4901446700096130e-002</leafValues></_>
        <_>
          <internalNodes>
            0 -1 10 -67178530 -537098242 -1117388801 -11624226
            -271007745 -67224435 -268850181 -269859656</internalNodes>
          <leafValues>
            -7.0156669616699219e-001 2.9032278060913086e-001</leafValues></_>
        <_>
          <internalNodes>
            0 -1 23 -1869577592 -450625 1033144309 -570425388 977082539
            -262657 1002388159 -271145</internalNodes>
          <leafValues>
            -6.5723055601119995e-001 3.4837773442268372e-001</leafValues></_>
        <_>
          <internalNodes>
            0 -1 14 -675283009 -537005249 -150995714 -9122 1426064896
            -333159 2000702716 -270542898</internalNodes>
          <leafValues>
            -5.2118784189224243e-001 4.3406441807746887e-001</leafValues></_>
        <_>
          <internalNodes>
            0 -1 55 -805310578 1717287647 119789480 -1563430657
            1798272003 1962898455 -71304336 -235667457</internalNodes>
          <leafValues>
            -6.2996226549148560e-001 3.9836400747299194e-001</leafValues></_>
        <_>
          <internalNodes>
            0 -1 29 590872371 1065351039 -1118503425 -4326785
            -1079377921 -6888776 1070170047 -1074806785</internalNodes>
          <leafValues>
            -5.9812957048416138e-001 4.1109114885330200e-001</leafValues></_>
        <_>
          <internalNodes>
            0 -1 35 -596904818 -675105790 -492635941 1618301506
            -930946237 -162405558 -298232 1651996534</internalNodes>
          <leafValues>
            -7.2723060846328735e-001 3.1818449497222900e-001</leafValues></_></weakClassifiers></_>
    <!-- stage 10 -->
    <_>
      <maxWeakCount>7</maxWeakCount>
      <stageThreshold>-1.5766538381576538e+000</stageThreshold>
      <weakClassifiers>
        <_>
          <internalNodes>
            0 -1 43 -201590037 -217841845 1343480557 -719061161
            -212868181 -804806029 -775708950 -67110245</internalNodes>
          <leafValues>
            -8.1016379594802856e-001 5.5359244346618652e-002</leafValues></_>
        <_>
          <internalNodes>
            0 -1 25 -260603710 -213402650 1615323219 -707004461
            -1068777270 -2079178464 -791547397 -69207313</internalNodes>
          <leafValues>
            -6.6874575614929199e-001 2.6437324285507202e-001</leafValues></_>
        <_>
          <internalNodes>
            0 -1 9 -4110 1900739038 1547327230 -266805346 -89787440
            -882334995 -2238037 -148373633</internalNodes>
          <leafValues>
            -6.1619019508361816e-001 3.5040515661239624e-001</leafValues></_>
        <_>
          <internalNodes>
            0 -1 37 271679475 525451479 -51775041 -527873 250165999
            -651603743 -35656961 -538981633</internalNodes>
          <leafValues>
            -5.9177863597869873e-001 3.5226517915725708e-001</leafValues></_>
        <_>
          <internalNodes>
            0 -1 51 -16777250 2000605272 -3473434 -140458932 -272631468
            2129447097 -104585380 -148570134</internalNodes>
          <leafValues>
            -6.1371237039566040e-001 3.8346552848815918e-001</leafValues></_>
        <_>
          <internalNodes>
            0 -1 22 -799037242 -5276836 1946402887 1907880262 -199023926
            -1878359230 1644688351 -258477085</internalNodes>
          <leafValues>
            -5.3572458028793335e-001 4.1830822825431824e-001</leafValues></_>
        <_>
          <internalNodes>
            0 -1 31 1918353922 -144580092 -771296907 1360916861
            -1668285202 -1162841032 -792868673 -164298761</internalNodes>
          <leafValues>
            -5.5647498369216919e-001 3.9696052670478821e-001</leafValues></_></weakClassifiers></_>
    <!-- stage 11 -->
    <_>
      <maxWeakCount>8</maxWeakCount>
      <stageThreshold>-1.9117660522460937e+000</stageThreshold>
      <weakClassifiers>
        <_>
          <internalNodes>
            0 -1 47 -203426081 1348468175 -921515937 -246153449
            -44056114 -716715320 -306184961 -37226805</internalNodes>
          <leafValues>
            -8.0506652593612671e-001 -6.4008392393589020e-002</leafValues></_>
        <_>
          <internalNodes>
            0 -1 16 -4235841 2139054834 -149173381 -7169 -348910356
            -11488320 -131077 -196616</internalNodes>
          <leafValues>
            -6.6309100389480591e-001 2.4075029790401459e-001</leafValues></_>
        <_>
          <internalNodes>
            0 -1 44 -210771313 1344522827 -265226240 1968433250
            1190301382 1880412804 -262607174 -88155393</internalNodes>
          <leafValues>
            -4.9880293011665344e-001 3.9769196510314941e-001</leafValues></_>
        <_>
          <internalNodes>
            0 -1 11 1433888631 -8993 -276570625 1574951869 -84969993
            -4685124 -872612129 -1082371</internalNodes>
          <leafValues>
            -5.5259305238723755e-001 3.7902081012725830e-001</leafValues></_>
        <_>
          <internalNodes>
            0 -1 50 -204556290 -2301064 -577234612 1073501119 -641075780
            -625195399 1596832700 -131169</internalNodes>
          <leafValues>
            -4.9363860487937927e-001 4.4920590519905090e-001</leafValues></_>
        <_>
          <internalNodes>
            0 -1 41 -263485949 -266081465 1175739523 1903384403
            1094140687 1346621717 -202900741 -67114449</internalNodes>
          <leafValues>
            -5.1874029636383057e-001 4.0444871783256531e-001</leafValues></_>
        <_>
          <internalNodes>
            0 -1 24 -404360432 -1118020515 -203565299 -136457520
            2042609540 -1078224421 -44045568 -1409336819</internalNodes>
          <leafValues>
            -6.6783279180526733e-001 3.1390258669853210e-001</leafValues></_>
        <_>
          <internalNodes>
            0 -1 18 -852709387 -15191075 -14984739 -398852 -1950810180
            -89838371 1807568799 -1880158803</internalNodes>
          <leafValues>
            -4.7064504027366638e-001 4.4830545783042908e-001</leafValues></_></weakClassifiers></_></stages>
  <features>
    <_>
      <rect>
        0 0 1 2</rect></_>
    <_>
      <rect>
        0 0 2 3</rect></_>
    <_>
      <rect>
        0 0 3 3</rect></_>
    <_>
      <rect>
        0 2 2 2</rect></_>
    <_>
      <rect>
        0 2 2 4</rect></_>
    <_>
      <rect>
        0 3 1 1</rect></_>
    <_>
      <rect>
        0 3 2 1</rect></_>
    <_>
      <rect>
        0 4 1 2</rect></_>
    <_>
      <rect>
        0 5 1 3</rect></_>
    <_>
      <rect>
        0 8 1 2</rect></_>
    <_>
      <rect>
        0 11 4 1</rect></_>
    <_>
      <rect>
        2 0 2 2</rect></_>
    <_>
      <rect>
        2 0 3 1</rect></_>
    <_>
      <rect>
        2 0 3 3</rect></_>
    <_>
      <rect>
        2 3 2 3</rect></_>
    <_>
      <rect>
        2 3 3 2</rect></_>
    <_>
      <rect>
        2 5 3 3</rect></_>
    <_>
      <rect>
        2 11 4 1</rect></_>
    <_>
      <rect>
        3 11 3 1</rect></_>
    <_>
      <rect>
        4 0 1 4</rect></_>
    <_>
      <rect>
        4 0 4 1</rect></_>
    <_>
      <rect>
        4 0 5 1</rect></_>
    <_>
      <rect>
        4 5 1 2</rect></_>
    <_>
      <rect>
        4 5 3 1</rect></_>
    <_>
      <rect>
        4 6 5 1</rect></_>
    <_>
      <rect>
        5 4 1 2</rect></_>
    <_>
      <rect>
        5 5 1 2</rect></_>
    <_>
      <rect>
        5 11 4 1</rect></_>
    <_>
      <rect>
        6 0 2 2</rect></_>
    <_>
      <rect>
        6 0 4 2</rect></_>
    <_>
      <rect>
        6 4 1 2</rect></_>
    <_>
      <rect>
        6 4 1 3</rect></_>
    <_>
      <rect>
        6 8 1 2</rect></_>
    <_>
      <rect>
        6 11 3 1</rect></_>
    <_>
      <rect>
        7 2 4 4</rect></_>
    <_>
      <rect>
        7 5 1 2</rect></_>
    <_>
      <rect>
        7 8 4 2</rect></_>
    <_>
      <rect>
        8 0 3 3</rect></_>
    <_>
      <rect>
        8 4 1 2</rect></_>
    <_>
      <rect>
        9 3 1 2</rect></_>
    <_>
      <rect>
        10 0 3 2</rect></_>
    <_>
      <rect>
        10 4 1 2</rect></_>
    <_>
      <rect>
        10 8 3 2</rect></_>
    <_>
      <rect>
        11 2 1 3</rect></_>
    <_>
      <rect>
        12 4 1 2</rect></_>
    <_>
      <rect>
        13 0 2 2</rect></_>
    <_>
      <rect>
        13 1 2 3</rect></_>
    <_>
      <rect>
        13 2 1 3</rect></_>
    <_>
      <rect>
        13 3 2 1</rect></_>
    <_>
      <rect>
        13 4 1 2</rect></_>
    <_>
      <rect>
        13 8 1 2</rect></_>
    <_>
      <rect>
        15 2 1 4</rect></_>
    <_>
      <rect>
        16 3 1 1</rect></_>
    <_>
      <rect>
        16 4 1 2</rect></_>
    <_>
      <rect>
        16 5 1 2</rect></_>
    <_>
      <rect>
        16 8 1 1</rect></_></features></cascade>
</opencv_storage>
