<?xml version="1.0"?>
<opencv_storage>
<cascade>
  <stageType>BOOST</stageType>
  <featureType>LBP</featureType>
  <height>10</height>
  <width>14</width>
  <stageParams>
    <boostType>GAB</boostType>
    <minHitRate>9.9500000476837158e-001</minHitRate>
    <maxFalseAlarm>4.4999998807907104e-001</maxFalseAlarm>
    <weightTrimRate>9.4999999999999996e-001</weightTrimRate>
    <maxDepth>1</maxDepth>
    <maxWeakCount>100</maxWeakCount></stageParams>
  <featureParams>
    <maxCatCount>256</maxCatCount>
    <featSize>1</featSize></featureParams>
  <stageNum>13</stageNum>
  <stages>
    <!-- stage 0 -->
    <_>
      <maxWeakCount>4</maxWeakCount>
      <stageThreshold>-1.7856080532073975e+000</stageThreshold>
      <weakClassifiers>
        <_>
          <internalNodes>
            0 -1 26 1373630602 -33828385 1359206654 -3585 -238290177
            -73695089 -607388673 -1025</internalNodes>
          <leafValues>
            -8.9997768402099609e-001 4.7344109416007996e-001</leafValues></_>
        <_>
          <internalNodes>
            0 -1 28 -767303030 1895850496 1342357542 -744373425
            -255077905 -184497976 -141558033 -1041</internalNodes>
          <leafValues>
            -7.8304010629653931e-001 5.5737274885177612e-001</leafValues></_>
        <_>
          <internalNodes>
            0 -1 59 -227024382 -720256438 1610661888 1364588622
            268947626 -196902902 -219946870 -67116305</internalNodes>
          <leafValues>
            -7.2547358274459839e-001 5.8823090791702271e-001</leafValues></_>
        <_>
          <internalNodes>
            0 -1 47 1898955395 352576282 -720666493 2136994651
            1078415514 1427324939 2001727951 -8399153</internalNodes>
          <leafValues>
            -6.6581964492797852e-001 6.2288331985473633e-001</leafValues></_></weakClassifiers></_>
    <!-- stage 1 -->
    <_>
      <maxWeakCount>4</maxWeakCount>
      <stageThreshold>-1.7451380491256714e+000</stageThreshold>
      <weakClassifiers>
        <_>
          <internalNodes>
            0 -1 39 -257232678 -239988734 -804203816 -70200614
            -796163926 -1182709629 -238816581 -67111957</internalNodes>
          <leafValues>
            -8.7216407060623169e-001 4.8371234536170959e-001</leafValues></_>
        <_>
          <internalNodes>
            0 -1 24 -801062720 -783253312 -1052386849 -205405697
            -804738869 -2147352576 -508833045 -202644741</internalNodes>
          <leafValues>
            -7.6590394973754883e-001 6.3287580013275146e-001</leafValues></_>
        <_>
          <internalNodes>
            0 -1 55 -261889530 1347642370 1076023426 1359176514
            -737959229 -2147254266 -251401589 -142607425</internalNodes>
          <leafValues>
            -7.5956594944000244e-001 6.0660541057586670e-001</leafValues></_>
        <_>
          <internalNodes>
            0 -1 60 -251594614 1363218576 -1845481320 -12091245
            -253695508 -1307017088 -90589014 -608457794</internalNodes>
          <leafValues>
            -7.1367549896240234e-001 6.8923330307006836e-001</leafValues></_></weakClassifiers></_>
    <!-- stage 2 -->
    <_>
      <maxWeakCount>4</maxWeakCount>
      <stageThreshold>-1.7552670240402222e+000</stageThreshold>
      <weakClassifiers>
        <_>
          <internalNodes>
            0 -1 32 -724502278 -39890785 -751699720 -10645041 831650559
            -7266127 -1146442757 -1048661</internalNodes>
          <leafValues>
            -8.9522343873977661e-001 5.1318943500518799e-001</leafValues></_>
        <_>
          <internalNodes>
            0 -1 31 -136318322 1897374210 -2130538422 1897390082
            -9719569 841189376 -1144390929 -213386353</internalNodes>
          <leafValues>
            -7.8906083106994629e-001 5.1707875728607178e-001</leafValues></_>
        <_>
          <internalNodes>
            0 -1 17 -219690354 -245923818 1611726853 1964093701
            -530452342 1342504960 -796666213 -212339826</internalNodes>
          <leafValues>
            -6.5606409311294556e-001 6.0542148351669312e-001</leafValues></_>
        <_>
          <internalNodes>
            0 -1 63 -204242290 1348887366 -267266030 1359063042
            -742202486 1879080960 -217862401 -263719990</internalNodes>
          <leafValues>
            -6.5400362014770508e-001 5.8508133888244629e-001</leafValues></_></weakClassifiers></_>
    <!-- stage 3 -->
    <_>
      <maxWeakCount>5</maxWeakCount>
      <stageThreshold>-2.1641411781311035e+000</stageThreshold>
      <weakClassifiers>
        <_>
          <internalNodes>
            0 -1 29 -740458354 -8711681 1607490031 -175649 -616517381
            -108936974 -1112952865 -67109377</internalNodes>
          <leafValues>
            -8.6830711364746094e-001 3.2930845022201538e-001</leafValues></_>
        <_>
          <internalNodes>
            0 -1 48 -204487793 -713041657 -957377785 -12583385
            -178797617 -196655274 -672670737 -67108865</internalNodes>
          <leafValues>
            -6.3189792633056641e-001 6.9702517986297607e-001</leafValues></_>
        <_>
          <internalNodes>
            0 -1 23 -1867472648 -1861185328 -2009487109 -541468385
            -2135252294 -1195892631 -1698710853 -6579713</internalNodes>
          <leafValues>
            -6.4206051826477051e-001 5.7170730829238892e-001</leafValues></_>
        <_>
          <internalNodes>
            0 -1 1 -515514112 -220333818 -805185472 -246549862
            -783294400 -486422015 -251142076 -203951361</internalNodes>
          <leafValues>
            -6.5378183126449585e-001 5.1801878213882446e-001</leafValues></_>
        <_>
          <internalNodes>
            0 -1 14 -788481576 -2844968 1427378653 1576210756
            -1845416966 -1075805560 -1551656786 -1976762240</internalNodes>
          <leafValues>
            -5.8186173439025879e-001 6.2491339445114136e-001</leafValues></_></weakClassifiers></_>
    <!-- stage 4 -->
    <_>
      <maxWeakCount>5</maxWeakCount>
      <stageThreshold>-2.1219780445098877e+000</stageThreshold>
      <weakClassifiers>
        <_>
          <internalNodes>
            0 -1 5 -2081 -12289 -40387715 -4195429 1346654404 -35805231
            -985344804 -3073</internalNodes>
          <leafValues>
            -8.0038553476333618e-001 3.4111544489860535e-001</leafValues></_>
        <_>
          <internalNodes>
            0 -1 25 387252992 2006782645 -183636294 -134233321
            -220747794 -176969310 -117440790 -22610</internalNodes>
          <leafValues>
            -7.7018755674362183e-001 3.5217690467834473e-001</leafValues></_>
        <_>
          <internalNodes>
            0 -1 21 -245902513 1359457895 -197042165 928379846
            -1069423350 -2076127914 -724047201 -68158561</internalNodes>
          <leafValues>
            -5.7504165172576904e-001 5.7328140735626221e-001</leafValues></_>
        <_>
          <internalNodes>
            0 -1 56 -662637640 268500884 -541290547 431546357 -74465619
            -1275537483 -1410515814 -1346536706</internalNodes>
          <leafValues>
            -6.3918703794479370e-001 4.5737388730049133e-001</leafValues></_>
        <_>
          <internalNodes>
            0 -1 64 -50333745 -763363506 -142606761 -632827390
            1912010702 1883480640 -134754321 -263723509</internalNodes>
          <leafValues>
            -4.7867715358734131e-001 6.0566061735153198e-001</leafValues></_></weakClassifiers></_>
    <!-- stage 5 -->
    <_>
      <maxWeakCount>6</maxWeakCount>
      <stageThreshold>-1.7690068483352661e+000</stageThreshold>
      <weakClassifiers>
        <_>
          <internalNodes>
            0 -1 31 -49 -143137278 -55839857 -178785653 -68162625
            -211553534 -1049953 -134742065</internalNodes>
          <leafValues>
            -7.6077944040298462e-001 3.3093005418777466e-001</leafValues></_>
        <_>
          <internalNodes>
            0 -1 66 -352321809 1081276375 -523050878 1611720530
            -101728257 -1068107011 -161745256 -229245201</internalNodes>
          <leafValues>
            -7.0458137989044189e-001 3.7425088882446289e-001</leafValues></_>
        <_>
          <internalNodes>
            0 -1 46 1900528391 -245933301 -16079487 -672138277
            1431787351 1431638287 -1044393269 -17</internalNodes>
          <leafValues>
            -6.4504975080490112e-001 4.5406448841094971e-001</leafValues></_>
        <_>
          <internalNodes>
            0 -1 12 -164654573 -2108481 -712024137 -32845 1476378951
            1190622027 -1486687233 -207618625</internalNodes>
          <leafValues>
            -4.8197162151336670e-001 5.6889134645462036e-001</leafValues></_>
        <_>
          <internalNodes>
            0 -1 32 -790841158 -561154449 -95584806 -134217746
            1888612351 1039741419 1060618235 2013231086</internalNodes>
          <leafValues>
            -6.8359470367431641e-001 3.7601307034492493e-001</leafValues></_>
        <_>
          <internalNodes>
            0 -1 27 2000943534 1883400964 1141231936 1385298886
            -69732098 1950729144 2011950820 -4177</internalNodes>
          <leafValues>
            -5.8116590976715088e-001 4.0785580873489380e-001</leafValues></_></weakClassifiers></_>
    <!-- stage 6 -->
    <_>
      <maxWeakCount>7</maxWeakCount>
      <stageThreshold>-2.1652112007141113e+000</stageThreshold>
      <weakClassifiers>
        <_>
          <internalNodes>
            0 -1 61 -203423745 1900408651 -581968453 -247070778
            -137891073 1413761024 -68161825 -2097169</internalNodes>
          <leafValues>
            -7.4018615484237671e-001 3.2567679882049561e-001</leafValues></_>
        <_>
          <internalNodes>
            0 -1 30 -70255894 855816696 -91520596 1468771823 -11555409
            33618355 -36734037 -4195601</internalNodes>
          <leafValues>
            -6.8503642082214355e-001 3.3127844333648682e-001</leafValues></_>
        <_>
          <internalNodes>
            0 -1 4 -102763549 -136710665 -149952954 -104005906 -76028860
            -691932765 -780799744 -246024845</internalNodes>
          <leafValues>
            -5.9610104560852051e-001 4.0674215555191040e-001</leafValues></_>
        <_>
          <internalNodes>
            0 -1 49 -16542765 -115623111 -1681481773 -549459041
            1901265282 1901425941 -9479174 -1056513</internalNodes>
          <leafValues>
            -4.7382801771163940e-001 4.9955931305885315e-001</leafValues></_>
        <_>
          <internalNodes>
            0 -1 19 1359151106 352711503 -235939657 1461165249
            -735583745 -936855537 -308296721 -100795425</internalNodes>
          <leafValues>
            -5.4787075519561768e-001 4.4477343559265137e-001</leafValues></_>
        <_>
          <internalNodes>
            0 -1 35 -179251624 -537918328 2005998077 -738460600
            -1080197428 -1081869756 2138799081 -1415643136</internalNodes>
          <leafValues>
            -5.4468417167663574e-001 4.2400199174880981e-001</leafValues></_>
        <_>
          <internalNodes>
            0 -1 45 -335629430 1156481510 2101799522 -2130915330
            -68899900 31927685 -403193906 -740295713</internalNodes>
          <leafValues>
            -5.8646357059478760e-001 3.9468640089035034e-001</leafValues></_></weakClassifiers></_>
    <!-- stage 7 -->
    <_>
      <maxWeakCount>7</maxWeakCount>
      <stageThreshold>-1.4545938968658447e+000</stageThreshold>
      <weakClassifiers>
        <_>
          <internalNodes>
            0 -1 42 -2097641 2002779647 -8523649 -35653633 -1 -932184865
            -2098181 -1049601</internalNodes>
          <leafValues>
            -7.2942590713500977e-001 3.1636980175971985e-001</leafValues></_>
        <_>
          <internalNodes>
            0 -1 58 -25179382 1995431791 -1532507730 -219676737
            -202397425 90137359 -139723797 -5</internalNodes>
          <leafValues>
            -5.9404170513153076e-001 3.7941506505012512e-001</leafValues></_>
        <_>
          <internalNodes>
            0 -1 3 1602180599 2143026623 -8396833 -4721699 1148473813
            1480628919 -1077937669 -131081</internalNodes>
          <leafValues>
            -5.1155465841293335e-001 4.5149767398834229e-001</leafValues></_>
        <_>
          <internalNodes>
            0 -1 15 -757339446 -67114381 -532488192 2109062547
            -1068513334 -732960192 1465374484 -1747978353</internalNodes>
          <leafValues>
            -5.6243079900741577e-001 4.3278932571411133e-001</leafValues></_>
        <_>
          <internalNodes>
            0 -1 57 -454640414 -161296794 -191409170 -680301978
            -928799794 -1469799375 -302268673 1651991398</internalNodes>
          <leafValues>
            -6.7511147260665894e-001 3.5641053318977356e-001</leafValues></_>
        <_>
          <internalNodes>
            0 -1 65 653209090 -353376273 1849158348 -1059347490
            -291505313 2124144187 -270836755 -335549441</internalNodes>
          <leafValues>
            -6.7153036594390869e-001 3.2629173994064331e-001</leafValues></_>
        <_>
          <internalNodes>
            0 -1 8 -67252739 -1207971436 1878806527 801571977 1442143573
            2080063517 1314718173 1230985214</internalNodes>
          <leafValues>
            -6.3451755046844482e-001 3.2082423567771912e-001</leafValues></_></weakClassifiers></_>
    <!-- stage 8 -->
    <_>
      <maxWeakCount>7</maxWeakCount>
      <stageThreshold>-1.9303165674209595e+000</stageThreshold>
      <weakClassifiers>
        <_>
          <internalNodes>
            0 -1 29 -2577 -33 -2097153 -1 -33587713 -33562625 -1048577
            -1</internalNodes>
          <leafValues>
            -7.2792166471481323e-001 2.4483306705951691e-001</leafValues></_>
        <_>
          <internalNodes>
            0 -1 0 259198726 -1048585 -847251593 -360833 -437258441
            -34825 -9437425 -8833</internalNodes>
          <leafValues>
            -6.4436584711074829e-001 3.0724057555198669e-001</leafValues></_>
        <_>
          <internalNodes>
            0 -1 55 -421009817 -515772809 -260906585 -479989897
            -117983577 -1000872137 -741344257 -525393</internalNodes>
          <leafValues>
            -4.7211012244224548e-001 4.2522269487380981e-001</leafValues></_>
        <_>
          <internalNodes>
            0 -1 37 -2142887902 -69650 -277938433 -135368114 809385888
            -1119777 754674169 -20971541</internalNodes>
          <leafValues>
            -5.6546616554260254e-001 3.8143190741539001e-001</leafValues></_>
        <_>
          <internalNodes>
            0 -1 44 686553831 -1142959892 -19404801 -360756101
            -294211958 -487069698 -389640576 -353370297</internalNodes>
          <leafValues>
            -4.4658416509628296e-001 4.4997563958168030e-001</leafValues></_>
        <_>
          <internalNodes>
            0 -1 33 822624120 889770422 -714753 -1114786817 -309217285
            -1349637155 -1161882117 -815974147</internalNodes>
          <leafValues>
            -4.9466204643249512e-001 4.1846677660942078e-001</leafValues></_>
        <_>
          <internalNodes>
            0 -1 63 -8390233 1615331145 -78381229 -741310970 1199030230
            -464126396 -8913557 -28835890</internalNodes>
          <leafValues>
            -4.3923339247703552e-001 4.6004584431648254e-001</leafValues></_></weakClassifiers></_>
    <!-- stage 9 -->
    <_>
      <maxWeakCount>8</maxWeakCount>
      <stageThreshold>-1.5376871824264526e+000</stageThreshold>
      <weakClassifiers>
        <_>
          <internalNodes>
            0 -1 41 -2241 -553648897 -572523585 -545 -37750849 -69222401
            -197 -1</internalNodes>
          <leafValues>
            -7.0519196987152100e-001 2.5044092535972595e-001</leafValues></_>
        <_>
          <internalNodes>
            0 -1 11 402535423 2147209087 -1646645249 -884739 1599567103
            -172553 -17088785 -37786122</internalNodes>
          <leafValues>
            -5.5281120538711548e-001 3.2820105552673340e-001</leafValues></_>
        <_>
          <internalNodes>
            0 -1 67 -19923217 -186124545 -493880578 1617294935 -5
            -189401377 -756548978 1880487745</internalNodes>
          <leafValues>
            -5.6800079345703125e-001 3.5249781608581543e-001</leafValues></_>
        <_>
          <internalNodes>
            0 -1 18 -164363 -804196156 -135569 -37908507 -1965179496
            -38682926 -150603317 -335605175</internalNodes>
          <leafValues>
            -4.2669972777366638e-001 4.6706095337867737e-001</leafValues></_>
        <_>
          <internalNodes>
            0 -1 48 -4199921 -713310946 -810708905 -268737630 1901564750
            620862045 -445191385 -218105225</internalNodes>
          <leafValues>
            -4.6847015619277954e-001 4.3106633424758911e-001</leafValues></_>
        <_>
          <internalNodes>
            0 -1 7 -436230229 -268437505 -56 -336597018 -722993340
            -270290058 1414919508 -532482234</internalNodes>
          <leafValues>
            -5.3605777025222778e-001 3.4481674432754517e-001</leafValues></_>
        <_>
          <internalNodes>
            0 -1 40 2074600367 -2099377 -393233466 1080488450 -771492799
            -138986237 -128200034 1880488654</internalNodes>
          <leafValues>
            -5.7863074541091919e-001 3.0843707919120789e-001</leafValues></_>
        <_>
          <internalNodes>
            0 -1 10 2049843839 -134219793 2138032031 -679493670
            -243305985 -100961417 -339738689 -302025909</internalNodes>
          <leafValues>
            -3.6944139003753662e-001 5.2616029977798462e-001</leafValues></_></weakClassifiers></_>
    <!-- stage 10 -->
    <_>
      <maxWeakCount>7</maxWeakCount>
      <stageThreshold>-2.0810830593109131e+000</stageThreshold>
      <weakClassifiers>
        <_>
          <internalNodes>
            0 -1 16 -69227781 -10511881 -246699845 -1088713925
            -1453344001 -20213101 -2114821 -10764837</internalNodes>
          <leafValues>
            -7.0967096090316772e-001 2.6003491878509521e-001</leafValues></_>
        <_>
          <internalNodes>
            0 -1 6 -782893057 -74146821 501078527 -6847713 1141954045
            -603670797 -725816579 -66625</internalNodes>
          <leafValues>
            -5.2506083250045776e-001 4.1082867980003357e-001</leafValues></_>
        <_>
          <internalNodes>
            0 -1 52 2145384186 1606416213 439263092 1943927802 -2623556
            -203557455 -134217730 1935140727</internalNodes>
          <leafValues>
            -5.5961757898330688e-001 3.5367819666862488e-001</leafValues></_>
        <_>
          <internalNodes>
            0 -1 56 814805940 268500304 -539111747 900323165 -1345471832
            -1111496523 -1343277431 -1347425553</internalNodes>
          <leafValues>
            -5.8898705244064331e-001 3.2664710283279419e-001</leafValues></_>
        <_>
          <internalNodes>
            0 -1 22 -244318270 -748690682 1882314735 2010556287
            -521739830 -195567277 1883697150 -1057499137</internalNodes>
          <leafValues>
            -4.5867320895195007e-001 4.1250392794609070e-001</leafValues></_>
        <_>
          <internalNodes>
            0 -1 34 -203705654 -146672824 119259159 -705322036
            -157877318 -4740990 1393283583 -780142039</internalNodes>
          <leafValues>
            -4.5964369177818298e-001 4.0354543924331665e-001</leafValues></_>
        <_>
          <internalNodes>
            0 -1 53 -353918302 45074409 678872642 100662741 -147850777
            1201848273 2001923823 1879044863</internalNodes>
          <leafValues>
            -6.3564735651016235e-001 2.8468072414398193e-001</leafValues></_></weakClassifiers></_>
    <!-- stage 11 -->
    <_>
      <maxWeakCount>8</maxWeakCount>
      <stageThreshold>-1.4699039459228516e+000</stageThreshold>
      <weakClassifiers>
        <_>
          <internalNodes>
            0 -1 9 -196619 -12583041 -5532161 -2268225 -188419612 -90212
            -357896273 -72398045</internalNodes>
          <leafValues>
            -7.4112361669540405e-001 2.1624781191349030e-002</leafValues></_>
        <_>
          <internalNodes>
            0 -1 25 118752518 2010994687 -35397698 -277226 -144982017
            -151327529 -189005826 -134220370</internalNodes>
          <leafValues>
            -7.0083141326904297e-001 1.8135190010070801e-001</leafValues></_>
        <_>
          <internalNodes>
            0 -1 43 -488636786 1413998370 2128609227 -682102557
            -486606106 -262171137 -500760754 -1023419569</internalNodes>
          <leafValues>
            -5.3147792816162109e-001 3.1412893533706665e-001</leafValues></_>
        <_>
          <internalNodes>
            0 -1 17 -218633138 2080367494 1615189056 1114944272
            -1066667062 -262934970 -697051633 1918360550</internalNodes>
          <leafValues>
            -5.5992984771728516e-001 3.2520404458045959e-001</leafValues></_>
        <_>
          <internalNodes>
            0 -1 62 1986002822 1884322436 -216812062 -502927030
            1986520782 1614848896 -428613641 -473563186</internalNodes>
          <leafValues>
            -5.5549573898315430e-001 3.0534544587135315e-001</leafValues></_>
        <_>
          <internalNodes>
            0 -1 13 1390928558 931110895 1117379206 -11885011 1615127684
            1346405384 1883369732 -255462706</internalNodes>
          <leafValues>
            -6.1260586977005005e-001 2.7470752596855164e-001</leafValues></_>
        <_>
          <internalNodes>
            0 -1 38 1917460544 1599027103 -719952417 -6562435 -309693048
            1367945420 -283121193 -539497506</internalNodes>
          <leafValues>
            -6.4931553602218628e-001 2.5602793693542480e-001</leafValues></_>
        <_>
          <internalNodes>
            0 -1 36 -3211798 -147133993 520882304 -611344401 -1607711
            1371542876 -651085336 2131615711</internalNodes>
          <leafValues>
            -5.3024035692214966e-001 3.2362124323844910e-001</leafValues></_></weakClassifiers></_>
    <!-- stage 12 -->
    <_>
      <maxWeakCount>10</maxWeakCount>
      <stageThreshold>-1.8368999958038330e+000</stageThreshold>
      <weakClassifiers>
        <_>
          <internalNodes>
            0 -1 9 -537001993 -10241 -8931329 -2049 -228264460 -74755
            -67180289 -67114101</internalNodes>
          <leafValues>
            -6.9506728649139404e-001 1.1872509866952896e-001</leafValues></_>
        <_>
          <internalNodes>
            0 -1 20 1056639167 1979318239 257035967 194976447 -67371009
            -4653635 -18894865 -206610</internalNodes>
          <leafValues>
            -5.6784957647323608e-001 2.5958174467086792e-001</leafValues></_>
        <_>
          <internalNodes>
            0 -1 59 -75503102 -787093914 -521099264 1910898159
            -1236012886 -196629464 -257771384 -67442949</internalNodes>
          <leafValues>
            -5.8761578798294067e-001 2.6867279410362244e-001</leafValues></_>
        <_>
          <internalNodes>
            0 -1 54 -689701953 16807184 -9011339 1298202448 1677438719
            -1075914507 -1431405652 -34019491</internalNodes>
          <leafValues>
            -4.2693796753883362e-001 3.7058320641517639e-001</leafValues></_>
        <_>
          <internalNodes>
            0 -1 51 -183030272 -71840604 1577057886 -145805473
            -241851008 -218251328 2003304302 91747701</internalNodes>
          <leafValues>
            -6.8450379371643066e-001 2.4780824780464172e-001</leafValues></_>
        <_>
          <internalNodes>
            0 -1 21 -237509685 1362340558 -199129793 -1117258813
            1078001034 -1999887981 1411369631 -1108348067</internalNodes>
          <leafValues>
            -4.0855705738067627e-001 3.6816400289535522e-001</leafValues></_>
        <_>
          <internalNodes>
            0 -1 2 -789003 1063254959 -1925382657 -1484922382 1564807232
            441128425 2094103933 -2499591</internalNodes>
          <leafValues>
            -4.5896297693252563e-001 3.3908912539482117e-001</leafValues></_>
        <_>
          <internalNodes>
            0 -1 28 -202671313 -217750004 -225774041 -137169083
            -50366481 -435880356 -155 -33620049</internalNodes>
          <leafValues>
            -3.3647450804710388e-001 4.6283546090126038e-001</leafValues></_>
        <_>
          <internalNodes>
            0 -1 50 172113617 419493840 2138570065 892825296 1913994972
            -22121541 -289338964 -537559883</internalNodes>
          <leafValues>
            -4.1842809319496155e-001 3.6994522809982300e-001</leafValues></_>
        <_>
          <internalNodes>
            0 -1 39 -525705088 -1833822842 -602219528 -119210022
            -510816085 -1385473847 1438872244 -347776598</internalNodes>
          <leafValues>
            -7.0275735855102539e-001 2.2467154264450073e-001</leafValues></_></weakClassifiers></_></stages>
  <features>
    <_>
      <rect>
        0 0 1 1</rect></_>
    <_>
      <rect>
        0 0 1 3</rect></_>
    <_>
      <rect>
        0 1 2 2</rect></_>
    <_>
      <rect>
        0 1 3 2</rect></_>
    <_>
      <rect>
        0 2 1 2</rect></_>
    <_>
      <rect>
        0 2 2 2</rect></_>
    <_>
      <rect>
        0 2 3 2</rect></_>
    <_>
      <rect>
        0 3 1 2</rect></_>
    <_>
      <rect>
        0 3 2 1</rect></_>
    <_>
      <rect>
        0 4 2 1</rect></_>
    <_>
      <rect>
        1 0 1 1</rect></_>
    <_>
      <rect>
        1 0 3 2</rect></_>
    <_>
      <rect>
        1 1 1 1</rect></_>
    <_>
      <rect>
        1 1 1 3</rect></_>
    <_>
      <rect>
        1 4 4 1</rect></_>
    <_>
      <rect>
        2 2 1 2</rect></_>
    <_>
      <rect>
        2 3 1 1</rect></_>
    <_>
      <rect>
        2 3 1 2</rect></_>
    <_>
      <rect>
        2 4 2 1</rect></_>
    <_>
      <rect>
        3 0 1 3</rect></_>
    <_>
      <rect>
        3 0 2 2</rect></_>
    <_>
      <rect>
        3 2 1 2</rect></_>
    <_>
      <rect>
        3 3 1 2</rect></_>
    <_>
      <rect>
        3 3 2 1</rect></_>
    <_>
      <rect>
        3 4 1 1</rect></_>
    <_>
      <rect>
        4 0 2 1</rect></_>
    <_>
      <rect>
        4 0 2 3</rect></_>
    <_>
      <rect>
        4 1 1 3</rect></_>
    <_>
      <rect>
        4 2 1 2</rect></_>
    <_>
      <rect>
        4 2 2 1</rect></_>
    <_>
      <rect>
        4 3 1 1</rect></_>
    <_>
      <rect>
        4 3 1 2</rect></_>
    <_>
      <rect>
        4 3 2 1</rect></_>
    <_>
      <rect>
        4 3 3 1</rect></_>
    <_>
      <rect>
        4 4 1 1</rect></_>
    <_>
      <rect>
        4 4 3 1</rect></_>
    <_>
      <rect>
        4 7 1 1</rect></_>
    <_>
      <rect>
        5 0 1 1</rect></_>
    <_>
      <rect>
        5 1 1 2</rect></_>
    <_>
      <rect>
        5 3 1 1</rect></_>
    <_>
      <rect>
        5 3 1 2</rect></_>
    <_>
      <rect>
        6 1 1 1</rect></_>
    <_>
      <rect>
        6 2 1 1</rect></_>
    <_>
      <rect>
        6 3 1 2</rect></_>
    <_>
      <rect>
        6 4 1 1</rect></_>
    <_>
      <rect>
        6 6 1 1</rect></_>
    <_>
      <rect>
        7 0 1 3</rect></_>
    <_>
      <rect>
        7 1 1 2</rect></_>
    <_>
      <rect>
        7 2 1 2</rect></_>
    <_>
      <rect>
        7 3 1 1</rect></_>
    <_>
      <rect>
        7 3 2 1</rect></_>
    <_>
      <rect>
        7 4 1 1</rect></_>
    <_>
      <rect>
        7 4 1 2</rect></_>
    <_>
      <rect>
        8 1 1 1</rect></_>
    <_>
      <rect>
        8 1 2 3</rect></_>
    <_>
      <rect>
        8 2 1 2</rect></_>
    <_>
      <rect>
        8 3 2 1</rect></_>
    <_>
      <rect>
        8 4 1 1</rect></_>
    <_>
      <rect>
        9 1 1 1</rect></_>
    <_>
      <rect>
        9 2 1 2</rect></_>
    <_>
      <rect>
        9 3 1 1</rect></_>
    <_>
      <rect>
        10 0 1 3</rect></_>
    <_>
      <rect>
        10 1 1 3</rect></_>
    <_>
      <rect>
        10 2 1 2</rect></_>
    <_>
      <rect>
        10 3 1 2</rect></_>
    <_>
      <rect>
        11 0 1 1</rect></_>
    <_>
      <rect>
        11 2 1 2</rect></_>
    <_>
      <rect>
        11 3 1 2</rect></_></features></cascade>
</opencv_storage>
