<?xml version="1.0"?>
<opencv_storage>
<cascade>
  <stageType>BOOST</stageType>
  <featureType>LBP</featureType>
  <height>14</height>
  <width>19</width>
  <stageParams>
    <boostType>GAB</boostType>
    <minHitRate>9.9500000476837158e-001</minHitRate>
    <maxFalseAlarm>4.4999998807907104e-001</maxFalseAlarm>
    <weightTrimRate>9.4999999999999996e-001</weightTrimRate>
    <maxDepth>1</maxDepth>
    <maxWeakCount>100</maxWeakCount></stageParams>
  <featureParams>
    <maxCatCount>256</maxCatCount>
    <featSize>1</featSize></featureParams>
  <stageNum>12</stageNum>
  <stages>
    <!-- stage 0 -->
    <_>
      <maxWeakCount>4</maxWeakCount>
      <stageThreshold>-2.0099916458129883e+000</stageThreshold>
      <weakClassifiers>
        <_>
          <internalNodes>
            0 -1 16 1362580991 -9737 -753279521 -539500577 1069283839
            -7631985 -88081921 -1025</internalNodes>
          <leafValues>
            -9.1799449920654297e-001 5.6415927410125732e-001</leafValues></_>
        <_>
          <internalNodes>
            0 -1 44 1494465282 2134601951 -46017775 -2362561 -7357505
            -5537329 -1142162497 -2098181</internalNodes>
          <leafValues>
            -8.6681932210922241e-001 4.1609930992126465e-001</leafValues></_>
        <_>
          <internalNodes>
            0 -1 30 -263987070 -213806906 -1073688494 -235417325
            1078051018 67301632 -792594693 -740296193</internalNodes>
          <leafValues>
            -7.6178807020187378e-001 6.0705584287643433e-001</leafValues></_>
        <_>
          <internalNodes>
            0 -1 32 -72827396 -461351 -1719640675 -14823011 -628835399
            -1081573224 -6284323 -6546688</internalNodes>
          <leafValues>
            -7.4630850553512573e-001 6.3799089193344116e-001</leafValues></_></weakClassifiers></_>
    <!-- stage 1 -->
    <_>
      <maxWeakCount>3</maxWeakCount>
      <stageThreshold>-1.1303852796554565e+000</stageThreshold>
      <weakClassifiers>
        <_>
          <internalNodes>
            0 -1 1 -10492178 -673598465 -788424609 -6827553 -619974149
            -75267957 -611324929 -68162561</internalNodes>
          <leafValues>
            -9.0700608491897583e-001 5.8275055885314941e-001</leafValues></_>
        <_>
          <internalNodes>
            0 -1 36 -801070968 -103198507 1880101080 -171974243
            -1817466454 -1448443758 -1316814917 -1073761537</internalNodes>
          <leafValues>
            -8.4843188524246216e-001 5.9895402193069458e-001</leafValues></_>
        <_>
          <internalNodes>
            0 -1 46 -800865790 -251432894 1073795075 -783040237
            1343471874 268664832 -219970929 -201589777</internalNodes>
          <leafValues>
            -8.0716955661773682e-001 6.2505269050598145e-001</leafValues></_></weakClassifiers></_>
    <!-- stage 2 -->
    <_>
      <maxWeakCount>4</maxWeakCount>
      <stageThreshold>-1.8967423439025879e+000</stageThreshold>
      <weakClassifiers>
        <_>
          <internalNodes>
            0 -1 17 269489617 -48653859 486545887 -2157283 -92214021
            -68450134 -1148474373 -1077993301</internalNodes>
          <leafValues>
            -8.8421720266342163e-001 4.2596811056137085e-001</leafValues></_>
        <_>
          <internalNodes>
            0 -1 8 -18 -218447618 -1069363170 -253325110 -123737089
            1426161826 -28574833 -212864017</internalNodes>
          <leafValues>
            -8.1899267435073853e-001 5.5875307321548462e-001</leafValues></_>
        <_>
          <internalNodes>
            0 -1 21 -652173828 -11005884 -1928234787 -194083 -1995375876
            -107405095 -350221377 -1087829876</internalNodes>
          <leafValues>
            -7.4607276916503906e-001 6.3255250453948975e-001</leafValues></_>
        <_>
          <internalNodes>
            0 -1 50 -748180702 -35655305 1502841262 2011165279
            -338978441 -67399521 -276037969 -33603649</internalNodes>
          <leafValues>
            -7.5764507055282593e-001 5.6548207998275757e-001</leafValues></_></weakClassifiers></_>
    <!-- stage 3 -->
    <_>
      <maxWeakCount>5</maxWeakCount>
      <stageThreshold>-1.5304325819015503e+000</stageThreshold>
      <weakClassifiers>
        <_>
          <internalNodes>
            0 -1 0 -285219122 -16777249 -641361957 -2097685 -70786117
            -1120001 -103810049 -81</internalNodes>
          <leafValues>
            -8.7889271974563599e-001 2.5633230805397034e-001</leafValues></_>
        <_>
          <internalNodes>
            0 -1 25 353572112 -33556713 -614752961 -34612769 -2047164419
            -1080457047 1038826399 -1111550051</internalNodes>
          <leafValues>
            -7.9944038391113281e-001 4.0978220105171204e-001</leafValues></_>
        <_>
          <internalNodes>
            0 -1 6 -134747442 -136850489 1780215502 -1058 1935500534
            -67652097 1739045567 -2098181</internalNodes>
          <leafValues>
            -7.1798062324523926e-001 5.3644925355911255e-001</leafValues></_>
        <_>
          <internalNodes>
            0 -1 24 -1181712388 -101689858 1567149501 2147029428
            -83777107 -75953479 -540230737 -1081603828</internalNodes>
          <leafValues>
            -7.4993312358856201e-001 5.2095270156860352e-001</leafValues></_>
        <_>
          <internalNodes>
            0 -1 54 -1063090688 -740888882 -2063208354 -214499425
            -87557304 -2112997 -3147041 -134218753</internalNodes>
          <leafValues>
            -7.2863340377807617e-001 4.9862167239189148e-001</leafValues></_></weakClassifiers></_>
    <!-- stage 4 -->
    <_>
      <maxWeakCount>5</maxWeakCount>
      <stageThreshold>-1.6823951005935669e+000</stageThreshold>
      <weakClassifiers>
        <_>
          <internalNodes>
            0 -1 7 -1055761 -462428658 -819464186 -488641818 -673711153
            1945346999 -505940997 -136314921</internalNodes>
          <leafValues>
            -9.1007608175277710e-001 1.0675039142370224e-001</leafValues></_>
        <_>
          <internalNodes>
            0 -1 57 -2 -76325 -778128642 -170931745 1375073040 287329365
            -168373376 -134742017</internalNodes>
          <leafValues>
            -7.9539251327514648e-001 3.9081013202667236e-001</leafValues></_>
        <_>
          <internalNodes>
            0 -1 16 1400862719 2144862143 -35136545 -536912389
            2138996735 2071854831 -2098241 -1</internalNodes>
          <leafValues>
            -7.1873426437377930e-001 4.9066486954689026e-001</leafValues></_>
        <_>
          <internalNodes>
            0 -1 35 -117444094 -247011328 -201211894 1347801638
            -792006198 -1066220736 -154927637 1918347079</internalNodes>
          <leafValues>
            -7.8406476974487305e-001 4.4544461369514465e-001</leafValues></_>
        <_>
          <internalNodes>
            0 -1 45 -620757040 -590035644 866221520 -2300580 -342889511
            -108275563 -77594652 -132129</internalNodes>
          <leafValues>
            -7.2046339511871338e-001 4.8955535888671875e-001</leafValues></_></weakClassifiers></_>
    <!-- stage 5 -->
    <_>
      <maxWeakCount>5</maxWeakCount>
      <stageThreshold>-1.3620554208755493e+000</stageThreshold>
      <weakClassifiers>
        <_>
          <internalNodes>
            0 -1 9 -1 -136314881 -27331842 -251985938 -67111201
            -549064787 -2100289 -1</internalNodes>
          <leafValues>
            -8.4693878889083862e-001 1.9073869287967682e-001</leafValues></_>
        <_>
          <internalNodes>
            0 -1 14 2011168515 -2228769 2146295679 -4194305 -1048577
            -6247 -33817601 -49</internalNodes>
          <leafValues>
            -6.7082548141479492e-001 4.8880666494369507e-001</leafValues></_>
        <_>
          <internalNodes>
            0 -1 49 -143662454 1342409219 -796329920 1909566307
            1660085954 1883498496 -252970834 -234881281</internalNodes>
          <leafValues>
            -6.4554649591445923e-001 5.1494234800338745e-001</leafValues></_>
        <_>
          <internalNodes>
            0 -1 26 -229119994 -239075454 -460962746 -214444281
            -529424310 268747078 1648873903 -229382169</internalNodes>
          <leafValues>
            -6.6706043481826782e-001 5.0871163606643677e-001</leafValues></_>
        <_>
          <internalNodes>
            0 -1 38 1392976522 -2097681 -202950689 -661025 -337788929
            -206837617 -8396801 -1</internalNodes>
          <leafValues>
            -7.2899383306503296e-001 4.6181207895278931e-001</leafValues></_></weakClassifiers></_>
    <!-- stage 6 -->
    <_>
      <maxWeakCount>5</maxWeakCount>
      <stageThreshold>-1.7252343893051147e+000</stageThreshold>
      <weakClassifiers>
        <_>
          <internalNodes>
            0 -1 15 1970759543 -4200449 -129 -1 -2049 -2049 -68288513 -1</internalNodes>
          <leafValues>
            -8.8743144273757935e-001 -6.3469678163528442e-002</leafValues></_>
        <_>
          <internalNodes>
            0 -1 55 -209 -1048593 -140510262 -1185 2080374567 1936718463
            -270532795 -150994945</internalNodes>
          <leafValues>
            -7.4891501665115356e-001 3.4681251645088196e-001</leafValues></_>
        <_>
          <internalNodes>
            0 -1 10 -65538 -1789956 -1342775348 -3342484 -101900324
            -105840650 -88220676 -271781924</internalNodes>
          <leafValues>
            -7.9032164812088013e-001 3.7686824798583984e-001</leafValues></_>
        <_>
          <internalNodes>
            0 -1 3 -286265754 -286523409 1861217934 -420484498
            1744306015 2008546299 -70329 -1572993</internalNodes>
          <leafValues>
            -7.8301721811294556e-001 3.8785433769226074e-001</leafValues></_>
        <_>
          <internalNodes>
            0 -1 39 33568245 863630837 -4760065 -39979105 804093949
            -33558789 -1343349249 1073692637</internalNodes>
          <leafValues>
            -7.6830309629440308e-001 3.8872340321540833e-001</leafValues></_></weakClassifiers></_>
    <!-- stage 7 -->
    <_>
      <maxWeakCount>5</maxWeakCount>
      <stageThreshold>-1.5729105472564697e+000</stageThreshold>
      <weakClassifiers>
        <_>
          <internalNodes>
            0 -1 18 -1 -26625 -851969 -12929 -141230340 -4205651
            -207749121 -1</internalNodes>
          <leafValues>
            -8.1265407800674438e-001 1.9515477120876312e-001</leafValues></_>
        <_>
          <internalNodes>
            0 -1 2 1325090047 -33473 -136315145 -3312065 -170139651
            -5726277 -3146753 -1049602</internalNodes>
          <leafValues>
            -7.1709972620010376e-001 2.9586148262023926e-001</leafValues></_>
        <_>
          <internalNodes>
            0 -1 51 -67110648 1357840335 2111691648 -67108897 -675283196
            1296428799 -33554447 -34734081</internalNodes>
          <leafValues>
            -8.1612348556518555e-001 3.0714774131774902e-001</leafValues></_>
        <_>
          <internalNodes>
            0 -1 23 -318731271 -4712035 -49155 -8818691 -1409754115
            -88311047 1811767293 -1346564916</internalNodes>
          <leafValues>
            -6.2454295158386230e-001 4.6716979146003723e-001</leafValues></_>
        <_>
          <internalNodes>
            0 -1 4 -296751386 -465310225 -2883930 -487670580 1133902662
            1159689031 -84149875 -162009273</internalNodes>
          <leafValues>
            -7.3252892494201660e-001 3.8970085978507996e-001</leafValues></_></weakClassifiers></_>
    <!-- stage 8 -->
    <_>
      <maxWeakCount>6</maxWeakCount>
      <stageThreshold>-2.1399807929992676e+000</stageThreshold>
      <weakClassifiers>
        <_>
          <internalNodes>
            0 -1 29 -579830787 -581332579 -107373059 -2106947 -268911681
            -4276257 -2834497 -181491</internalNodes>
          <leafValues>
            -8.5611176490783691e-001 -1.0182370990514755e-001</leafValues></_>
        <_>
          <internalNodes>
            0 -1 15 1968404343 -1059 -33685537 -2097961 -1083945
            -6428965 -38830337 -35969</internalNodes>
          <leafValues>
            -7.3907071352005005e-001 2.9154646396636963e-001</leafValues></_>
        <_>
          <internalNodes>
            0 -1 53 -16388 -134744089 -612581384 -75699203 -201326668
            -156959889 -16388 -71434337</internalNodes>
          <leafValues>
            -6.1878371238708496e-001 3.6543101072311401e-001</leafValues></_>
        <_>
          <internalNodes>
            0 -1 27 -1868004728 -69353557 -1110073355 -570425915
            445463471 -1667520581 867874559 2113543887</internalNodes>
          <leafValues>
            -7.1107304096221924e-001 3.3312129974365234e-001</leafValues></_>
        <_>
          <internalNodes>
            0 -1 11 -2166874 1627373710 -137706898 -1058220817
            -484981897 1909395129 -207361426 -419954697</internalNodes>
          <leafValues>
            -7.0431554317474365e-001 3.4270361065864563e-001</leafValues></_>
        <_>
          <internalNodes>
            0 -1 22 368055797 -141059875 -1660308481 -56071 1552101823
            -611619431 -3752961 -108888</internalNodes>
          <leafValues>
            -5.8826237916946411e-001 4.1510528326034546e-001</leafValues></_></weakClassifiers></_>
    <!-- stage 9 -->
    <_>
      <maxWeakCount>6</maxWeakCount>
      <stageThreshold>-1.9448804855346680e+000</stageThreshold>
      <weakClassifiers>
        <_>
          <internalNodes>
            0 -1 20 -6299649 -8402958 -6881313 -4331617 -344146180
            -477216 -339092545 -196680</internalNodes>
          <leafValues>
            -8.7953037023544312e-001 -2.1559362113475800e-001</leafValues></_>
        <_>
          <internalNodes>
            0 -1 40 823653879 2145124191 -638857731 -1057833 -1082130433
            -5252137 -6291457 -69</internalNodes>
          <leafValues>
            -6.2180882692337036e-001 3.6007967591285706e-001</leafValues></_>
        <_>
          <internalNodes>
            0 -1 30 -262701046 1396945766 1884547602 -577503273
            1078051008 -2146183580 -774769159 -69207810</internalNodes>
          <leafValues>
            -6.4515584707260132e-001 3.6132416129112244e-001</leafValues></_>
        <_>
          <internalNodes>
            0 -1 43 2080128888 -483843 1604199420 -54275 -140236292
            -1544008 -1142375491 -1074250440</internalNodes>
          <leafValues>
            -7.0337617397308350e-001 3.3389720320701599e-001</leafValues></_>
        <_>
          <internalNodes>
            0 -1 56 -562037201 1541395935 -654650012 -341902737
            1946123010 83586666 -1025512894 -490996753</internalNodes>
          <leafValues>
            -6.1559540033340454e-001 4.2925497889518738e-001</leafValues></_>
        <_>
          <internalNodes>
            0 -1 34 -666644278 285360650 -410789517 -75171506 -786896385
            -687758439 -11551333 -7602177</internalNodes>
          <leafValues>
            -5.2316725254058838e-001 4.3589404225349426e-001</leafValues></_></weakClassifiers></_>
    <!-- stage 10 -->
    <_>
      <maxWeakCount>6</maxWeakCount>
      <stageThreshold>-2.1564040184020996e+000</stageThreshold>
      <weakClassifiers>
        <_>
          <internalNodes>
            0 -1 47 -67376437 -216797645 1880282077 -754722433
            -209718353 -116776810 -203162897 -8197</internalNodes>
          <leafValues>
            -8.0432546138763428e-001 1.2433862686157227e-001</leafValues></_>
        <_>
          <internalNodes>
            0 -1 19 2147220991 1071971323 -673451525 -2369185 1145065953
            208010627 1905393119 -132161</internalNodes>
          <leafValues>
            -6.7868989706039429e-001 2.7403852343559265e-001</leafValues></_>
        <_>
          <internalNodes>
            0 -1 41 -117967858 1473372160 -502079269 542242368
            -494510005 -33430742 -4784310 1115157250</internalNodes>
          <leafValues>
            -7.5292575359344482e-001 2.8224775195121765e-001</leafValues></_>
        <_>
          <internalNodes>
            0 -1 13 1417631040 2145090395 -50137601 -12856837
            -1956555265 -366402 2074473471 -1025</internalNodes>
          <leafValues>
            -7.6848250627517700e-001 2.8238648176193237e-001</leafValues></_>
        <_>
          <internalNodes>
            0 -1 31 -261117234 -213161408 3588979 870511043 -531957522
            -769671098 1615985631 1881665226</internalNodes>
          <leafValues>
            -6.0313969850540161e-001 3.8559386134147644e-001</leafValues></_>
        <_>
          <internalNodes>
            0 -1 12 1795090298 -1075008002 -1786176001 -1076976902
            -925629507 -72726307 -335971973 -1882307364</internalNodes>
          <leafValues>
            -6.3488340377807617e-001 3.4920519590377808e-001</leafValues></_></weakClassifiers></_>
    <!-- stage 11 -->
    <_>
      <maxWeakCount>7</maxWeakCount>
      <stageThreshold>-1.6048059463500977e+000</stageThreshold>
      <weakClassifiers>
        <_>
          <internalNodes>
            0 -1 52 -2049 -243285041 -43647521 -246154878 -71307522
            -670720448 -68158725 -69206065</internalNodes>
          <leafValues>
            -7.8205126523971558e-001 1.5024232864379883e-001</leafValues></_>
        <_>
          <internalNodes>
            0 -1 33 -21585 -67699745 -411701841 -149681 -570753297
            -4659068 -76612113 -524309</internalNodes>
          <leafValues>
            -5.6681919097900391e-001 3.7429353594779968e-001</leafValues></_>
        <_>
          <internalNodes>
            0 -1 48 16770698 939522045 962592571 -67153473 -1344421891
            -1090857827 -1311761 -279810</internalNodes>
          <leafValues>
            -6.0384136438369751e-001 3.3167564868927002e-001</leafValues></_>
        <_>
          <internalNodes>
            0 -1 28 -34210032 -1116449380 -543294195 -33694836 -4720756
            -1074796289 -76813568 -1982121425</internalNodes>
          <leafValues>
            -6.5877300500869751e-001 3.2409197092056274e-001</leafValues></_>
        <_>
          <internalNodes>
            0 -1 5 -1055058 -62391342 -554271258 -318834593 -253004937
            -356921189 -403342457 -337118209</internalNodes>
          <leafValues>
            -7.2807031869888306e-001 3.0936244130134583e-001</leafValues></_>
        <_>
          <internalNodes>
            0 -1 42 -1060140986 -1737232377 -218632556 -179047609
            1073907594 -2076044800 -488177689 -159384577</internalNodes>
          <leafValues>
            -6.1984956264495850e-001 3.3556669950485229e-001</leafValues></_>
        <_>
          <internalNodes>
            0 -1 37 -67108866 -15287389 1874087384 -640316482 1066189776
            -1426579340 2113797992 -542250001</internalNodes>
          <leafValues>
            -4.8070833086967468e-001 4.3621686100959778e-001</leafValues></_></weakClassifiers></_></stages>
  <features>
    <_>
      <rect>
        0 0 1 2</rect></_>
    <_>
      <rect>
        0 0 2 3</rect></_>
    <_>
      <rect>
        0 0 4 3</rect></_>
    <_>
      <rect>
        0 3 1 1</rect></_>
    <_>
      <rect>
        0 3 1 3</rect></_>
    <_>
      <rect>
        0 3 2 1</rect></_>
    <_>
      <rect>
        0 3 2 2</rect></_>
    <_>
      <rect>
        0 5 1 2</rect></_>
    <_>
      <rect>
        0 5 1 3</rect></_>
    <_>
      <rect>
        0 8 1 2</rect></_>
    <_>
      <rect>
        0 8 4 2</rect></_>
    <_>
      <rect>
        0 9 1 1</rect></_>
    <_>
      <rect>
        0 11 4 1</rect></_>
    <_>
      <rect>
        1 0 2 3</rect></_>
    <_>
      <rect>
        1 0 6 2</rect></_>
    <_>
      <rect>
        2 0 2 2</rect></_>
    <_>
      <rect>
        2 0 3 3</rect></_>
    <_>
      <rect>
        2 0 5 1</rect></_>
    <_>
      <rect>
        2 2 2 4</rect></_>
    <_>
      <rect>
        2 3 3 2</rect></_>
    <_>
      <rect>
        2 5 3 3</rect></_>
    <_>
      <rect>
        2 11 4 1</rect></_>
    <_>
      <rect>
        3 0 3 1</rect></_>
    <_>
      <rect>
        3 11 3 1</rect></_>
    <_>
      <rect>
        3 11 4 1</rect></_>
    <_>
      <rect>
        4 0 5 1</rect></_>
    <_>
      <rect>
        4 5 1 2</rect></_>
    <_>
      <rect>
        4 5 3 1</rect></_>
    <_>
      <rect>
        4 6 5 1</rect></_>
    <_>
      <rect>
        4 11 4 1</rect></_>
    <_>
      <rect>
        5 4 1 2</rect></_>
    <_>
      <rect>
        5 5 1 2</rect></_>
    <_>
      <rect>
        5 11 4 1</rect></_>
    <_>
      <rect>
        6 1 2 2</rect></_>
    <_>
      <rect>
        6 2 1 3</rect></_>
    <_>
      <rect>
        6 5 1 2</rect></_>
    <_>
      <rect>
        6 5 2 1</rect></_>
    <_>
      <rect>
        6 8 1 2</rect></_>
    <_>
      <rect>
        7 0 2 4</rect></_>
    <_>
      <rect>
        7 0 3 1</rect></_>
    <_>
      <rect>
        7 0 3 2</rect></_>
    <_>
      <rect>
        7 5 1 2</rect></_>
    <_>
      <rect>
        9 4 1 2</rect></_>
    <_>
      <rect>
        9 11 2 1</rect></_>
    <_>
      <rect>
        10 0 3 3</rect></_>
    <_>
      <rect>
        10 2 3 4</rect></_>
    <_>
      <rect>
        10 4 1 2</rect></_>
    <_>
      <rect>
        11 2 1 3</rect></_>
    <_>
      <rect>
        12 0 2 2</rect></_>
    <_>
      <rect>
        12 4 1 2</rect></_>
    <_>
      <rect>
        13 0 2 2</rect></_>
    <_>
      <rect>
        13 3 2 2</rect></_>
    <_>
      <rect>
        13 4 1 2</rect></_>
    <_>
      <rect>
        13 8 2 2</rect></_>
    <_>
      <rect>
        15 0 1 3</rect></_>
    <_>
      <rect>
        16 2 1 1</rect></_>
    <_>
      <rect>
        16 5 1 2</rect></_>
    <_>
      <rect>
        16 5 1 3</rect></_></features></cascade>
</opencv_storage>
